4525 50
salt 0.09538201 0.22294265 -0.46221322 -1.4366083 -2.7284453 -3.0799162 2.4155483 -2.857446 -0.49309453 -0.6939304 0.4620008 -0.14192611 0.9653354 -0.1861026 2.4120102 -0.25492123 0.027504597 -0.010664735 0.04799605 -1.1534154 0.17973492 -3.5242023 0.9708266 1.2914453 1.4293029 1.3706532 3.1600475 -0.011023276 1.1586772 -3.4243484 3.0843112 0.30747488 0.28204706 0.06982961 -0.5937869 0.13677907 -0.9985929 -0.71782666 -1.4108417 1.0656453 1.58073 -2.1519675 -0.09837888 -0.38751847 -1.0078582 1.2935634 -0.27166867 -1.4227 1.6447057 -1.335477
pepper 0.30443776 -0.99289817 -1.926578 1.4367826 0.6523647 1.7499022 0.8247665 -2.4063413 -0.13058822 0.70634836 0.098353356 -0.24035874 -3.041433 1.7392652 -2.2873204 0.28932244 1.1540643 0.39009145 -1.3087127 0.4277936 2.2900934 -0.65191174 -0.60448253 -0.39510393 1.2304416 1.1992868 -2.0833552 0.4673009 4.540801 1.3041296 -0.93614566 1.5171124 -0.32888716 0.8007186 2.228559 -1.2062279 2.276215 3.4394877 -1.1613418 0.78158957 -0.44135758 -0.6186518 1.0674777 -0.9471889 -0.14906785 1.9859377 0.48270687 -0.31471184 -0.8807851 -2.109297
onion 1.0123485 -2.863377 -0.9134688 -0.88322735 -0.5405962 0.5676032 -0.06294023 1.0534317 4.830697 -1.3999429 -2.1200123 -2.300748 -2.122327 1.1396703 -2.1528072 -0.7780714 0.5080694 -2.5822062 -0.13850293 -3.6358767 2.8752527 0.6319685 -1.6723796 -1.5508177 -0.37584612 4.1879406 -2.4103177 0.24347639 0.24019101 -1.0517554 1.7495676 0.10100126 -0.8631792 -2.7686458 4.326863 1.6777227 -0.34060368 1.7584655 -2.2939637 -1.5317581 2.286327 -1.7728208 0.16346473 -1.5866988 -3.8422732 0.99229574 3.3978577 1.9905167 2.2978168 0.96987593
oil 0.7475344 -0.43921608 -0.18062381 -0.8983479 -2.4200785 0.59140116 -2.1667054 -1.5809536 -0.5207792 -1.3997678 2.697437 2.7169032 -3.0189211 3.3685665 2.1584098 -1.5961232 1.2586724 0.052304637 1.375678 3.2651658 1.3890412 0.09686492 -1.6072972 3.5377746 -0.7437561 4.8863835 2.5927572 -0.17239074 -3.6047668 -0.37931013 -0.79695624 -0.52659786 0.58483833 0.030539006 1.7976556 2.2958045 2.3490994 1.7554215 -3.6081407 1.1874068 1.9756619 0.7987292 -2.2575479 -2.5016646 -0.23483229 0.7112188 0.042277887 -0.7817073 -2.1964233 -2.704673
sugar -2.2458847 0.104167566 0.1695573 2.5360782 -2.95647 0.24959564 1.8474556 1.1863561 -1.6081352 -2.0083065 1.2698138 1.0012395 -2.4339795 -0.533452 -0.6531569 -1.7995597 0.002163332 -0.72944915 -3.2450697 0.1293955 -1.9130425 2.4141886 1.9217482 4.009744 -0.12083617 -2.1042438 0.46261382 2.4288747 0.12806064 0.042557713 -0.10708695 -1.7705752 -3.7009714 -2.4102783 -1.3221713 -1.990745 -3.5132482 0.34309158 -1.8769814 1.529221 -1.3972471 0.5652018 0.80808353 -1.3494161 2.8644707 3.1226013 -1.5889056 -1.850248 -0.21815 -0.2434729
butter -1.0023894 2.1197226 -1.011033 -1.8870387 -0.99592686 0.018385807 -2.049879 -0.4666226 -0.5935447 -2.3936682 1.8995998 -1.7509851 0.88343966 1.488502 3.0042334 0.56621635 1.3484477 -0.97576344 -1.1746765 4.4895844 -0.06338394 1.7462317 -1.0117944 -0.86911035 1.6437297 1.5392982 1.7724823 1.36746 -2.73605 1.3902327 -0.3103349 -0.07308158 0.25295293 -0.35038376 1.1500493 2.252908 0.36981645 -2.5730956 -1.2983042 0.8708539 -0.8985395 3.96718 -2.968229 0.20263366 0.042806473 -1.4125013 -0.9510544 0.554128 0.91494703 -0.67893636
garlic 2.4088652 -2.456592 -1.7110139 -2.371779 2.3960283 0.57178146 -1.5826944 -2.7644632 -0.87196875 1.5344208 -0.17865574 -4.4432006 -1.4599766 -1.1098272 0.56102294 -0.6866801 1.9239041 -3.5092695 1.610143 1.2482218 1.0602049 -2.239986 0.06601678 -0.4052196 -0.74938077 0.23621604 -4.3971763 -1.5686221 1.4077122 -1.3355457 -0.13768077 2.1048067 -0.046973314 2.6518638 4.5280757 -1.0688885 -0.13726646 3.6867793 0.87758344 -1.7456768 4.293241 -1.6635921 -0.87098616 -0.69886935 -1.6133761 -0.10395414 -0.5699152 1.169981 -3.7661788 -3.1154537
egg 0.79470545 0.8320855 -0.61623216 1.1211026 1.1051328 2.655438 2.2848754 0.84493023 -0.5419121 -0.35391653 -0.4600823 -1.8985656 2.9655418 2.0139413 -0.41620877 1.7243272 -0.41671917 -2.1776884 -0.5405625 3.2043316 -1.5152582 0.19343403 1.1841397 -0.9047068 2.257663 -0.030804135 2.1350982 0.5248975 -1.3877009 1.8624606 1.3687938 -0.35321775 -1.2814813 -5.144425 -0.82636714 0.20368852 0.46778998 -3.3368578 0.059152234 1.4545097 0.8847098 0.22494692 1.7225868 1.8861554 -1.1077031 -0.35541877 -1.9850774 -2.044067 -0.9757177 0.2876634
cheese 1.0257467 3.547651 -1.4928138 -3.7248962 -0.82015234 2.2283783 1.9253052 -2.1901176 0.03590205 -0.50037163 2.6024718 -0.35693404 1.5484557 2.5585814 -0.50907546 2.8127844 0.9038792 -1.7850171 -3.5807343 -0.7271476 1.4903789 1.1178561 -1.253373 0.3664642 -0.77577245 3.7491636 -1.4480004 0.73116744 0.114308596 -1.167448 3.0262854 -1.6938219 2.6818104 0.47096124 -2.25448 -3.503598 1.5965772 0.5128294 -0.101719104 0.3444533 0.11100182 1.8706377 4.7449265 3.3479233 0.8967445 -3.9046435 0.076877914 2.0211012 -0.058154948 0.6075967
flour -4.4390783 -1.2052627 -1.2103232 1.6013098 -2.9078257 1.1227751 0.91306096 -2.1497447 -1.1877987 0.32125628 0.044112794 1.186622 0.62255293 -2.190632 2.312123 -0.0023934084 -0.07275485 -0.8211468 -2.0882106 -0.7708591 0.5762149 0.6433183 0.66746706 1.0798725 3.611638 0.4644123 -3.1901755 -1.1470455 -0.96315306 -0.29844418 0.49699342 -2.4705281 0.5077697 -0.6414506 -1.7963614 4.438662 2.3220692 -4.506193 0.5591827 -2.0229337 -2.8449588 -1.3547868 -1.2702032 3.6550016 1.5165207 -0.40601346 0.18779565 3.1642444 1.3922254 -0.66531897
olive 0.28264952 0.016173441 1.7116637 4.2239904 0.57232946 2.025895 -0.20488505 -3.9392076 0.36100283 1.4275861 -1.9808304 -3.3019652 0.7679326 -0.48554477 -0.20187367 -0.65098 2.9652078 2.7765398 -2.6105373 -3.456438 -1.6507217 -2.6022122 2.3536558 -1.2666141 1.5055549 2.087262 -1.5028436 0.5517164 1.2639344 -4.3643913 0.2440892 4.2153764 -0.3334292 0.7537107 2.0561178 -3.5477192 0.45314136 1.9929287 1.4158285 0.9857826 0.5206419 0.043969665 1.0687575 1.8686031 -1.7337555 1.28851 0.7934619 1.3974593 2.1514537 -0.42883822
cream 0.57908005 2.4954534 3.769229 -1.5683757 1.0953751 0.80564934 0.37025002 -0.8222327 -0.48202407 0.7727557 0.13644189 0.2963095 1.7318015 0.17010808 -1.0128176 1.9804926 -2.9335084 -0.7623505 -2.3616266 1.5605713 -3.1403697 0.8982774 -0.07801265 1.9999796 3.0162683 2.6263936 0.72020066 -1.8272527 -0.83163935 1.2455957 0.7810457 -1.2307559 1.9906346 0.84334666 0.71343434 3.6340237 -2.7915804 -0.23516177 -0.509702 1.3305897 -2.0087557 2.2370176 -0.5651165 2.2029355 -2.7723637 0.0043046074 -0.96302664 1.9378418 -0.47949517 1.2158839
water 0.6140393 -1.136207 1.8352767 1.5351596 -0.6030782 0.40067306 4.932783 -2.5660827 -0.77775 -0.2883445 0.7943199 -1.1179029 0.029307464 0.16351107 0.33257088 1.3861392 -0.27079734 0.7688953 -1.2905183 -1.1910108 -1.1618121 -1.064528 1.8356344 1.3526701 0.17815503 0.73124534 0.04129732 -0.32882345 -1.1722829 -0.5351408 1.1042336 -0.09535895 -2.368212 0.15079919 0.503376 2.598206 -0.18682294 1.2270408 -0.45934373 -0.8613169 1.2726426 1.5566778 -0.076041676 -1.7480153 -0.48920423 2.1502655 -1.4108977 -1.7992729 -1.0587975 1.055957
clove -1.316235 0.60492074 -1.761227 2.0538561 -0.5031784 0.45112675 -1.0773723 -1.002579 2.025868 -0.85282815 -1.7468929 1.4640952 -0.12848257 2.3179595 -2.2203584 -3.767466 1.2379907 1.4678181 1.641735 0.92703193 3.8727856 -1.5926639 -1.4712563 -1.6975217 2.4939854 3.6601956 0.7619481 0.5103156 1.780437 -3.0641274 0.85316116 -0.26620978 1.6513652 -2.1869767 0.87947017 1.0031432 1.3520066 -1.2738788 1.5151576 2.718446 -2.6966588 -1.6387348 0.7861507 -0.89517546 -1.1909388 3.0019708 2.78206 -1.2239348 1.3706615 -1.0860119
milk 0.3663705 1.2276471 0.95217645 -0.102859534 -0.21495654 1.195232 3.0829618 -2.2504835 -1.3000362 -1.3302963 1.3191248 -1.1438421 0.95871496 1.934642 1.3345802 1.7426914 -0.58215195 1.2863202 -0.11993114 1.3642858 -3.3686254 1.4824423 0.52929884 0.5887574 0.521823 -0.2645777 -0.11105362 -1.7822703 0.33624113 1.0123163 2.0392118 -1.3434775 -0.7110263 -0.918819 1.7353622 1.2670771 -1.9511454 -1.662269 0.4297333 -0.37839 -0.771899 2.779278 -0.57916874 1.0109357 -0.59432316 0.5347126 -1.1977497 0.16048904 0.3129989 0.6546302
juice -3.325196 -3.1303196 1.664081 -0.47920418 0.07679342 -0.27152574 2.7109072 -0.06047032 -2.6918807 2.9884706 -0.47616947 -2.2520862 1.9025524 -0.3896637 -1.2495322 0.27984837 4.221093 3.2357054 2.765485 -0.1921457 1.1859804 1.5305746 -5.8873835 5.747264 2.4174535 3.324545 1.6484 1.5942549 0.95628613 1.5937558 2.4018 -0.25058308 -3.2500024 2.088292 2.6540754 -3.6676736 0.30816147 -1.3431852 -1.1878792 0.7971644 0.650215 1.0750128 0.7701758 -0.47208974 -3.205121 1.7877532 3.807477 -0.82490945 -0.27619705 0.16829407
tomato 1.1179605 -1.608332 -0.356142 1.8390505 0.17944762 2.4337332 -2.1287153 -5.3799324 -2.1199007 0.64116776 -2.215663 0.5595999 -0.03112264 6.061008 0.58293355 -1.647157 -2.7733989 4.635315 -0.079721324 -2.872763 1.509497 -0.1042557 1.1547544 -1.8589766 -2.389069 2.4119442 -1.0838568 -3.4284713 4.9387255 -3.675069 0.575035 -1.6581292 0.37028307 2.930984 4.2797427 -1.2175455 1.1531771 2.9214604 -2.3281581 -0.9194665 2.127771 -0.6465559 -1.2211671 -2.743876 -2.3031518 -2.860301 -1.9113404 3.943255 0.7823001 -1.7693655
chicken 0.28498104 -0.48444048 -0.23597586 -0.36400542 -0.77680963 1.8933353 -0.47156245 -0.21047056 0.074316755 -0.60586506 4.370912 -2.4359698 -0.84276676 3.3193786 -3.6108205 -3.2918725 1.1824782 -5.9127245 3.108348 -1.7062657 1.1788323 -0.58268327 0.1275256 0.35298663 1.5237846 0.29083046 -0.28394967 1.959064 2.8082004 -1.8180231 -1.7292254 3.3189838 2.1855273 1.7743052 2.7201262 -1.0860826 -2.0029411 -0.7061811 0.9933684 -0.358719 -1.0391576 1.5215232 -1.2975998 0.6935019 0.24106741 1.1045734 2.0475612 1.1274333 0.9352033 -0.38855493
lemon 1.5809823 3.8456938 1.1416769 0.4062443 0.3319073 -1.7570044 -4.86292 -3.6738176 0.10248149 -1.8113195 -0.9432363 2.9005938 -0.56307 -0.89143085 -1.4398838 0.99185514 2.1955705 -2.7306983 -0.80444276 -1.6214 -0.92334205 2.0962007 4.8939114 -3.7946784 0.58500975 -0.042251103 1.2078037 -0.59222734 -0.35506493 -0.969178 0.4737809 -0.8860345 2.2880335 -2.473492 -0.939758 0.49543965 0.3494904 2.8211453 -0.47948116 -0.59445226 1.0557212 -3.0788527 -0.8812468 -0.9332713 -0.9647592 1.6948295 -2.4030085 -0.13011312 -1.3236258 1.1971496
vanilla 0.028516928 -1.9667135 1.029337 0.7003199 -0.29032815 -2.5055158 0.7481646 6.7878704 0.42958942 -2.148878 -3.836707 0.71498376 0.084445946 -2.5596516 1.8961482 3.7500474 -0.92472196 2.5871525 -0.41205642 -0.5578828 -4.8136187 7.9579988 -3.62235 -2.4359055 -0.20817429 -2.5903075 -1.4656961 -2.649415 -6.121563 1.8911027 4.6266665 -3.6363711 -1.8275597 -6.4010615 -0.46737763 -0.02679302 -2.8335323 -4.0983367 -1.8940473 -0.75161874 -0.93692267 -0.23003314 -0.22448778 -3.7277384 2.9588358 -0.87004584 -1.9235388 3.4524107 2.9495113 1.8760272
green -1.9330294 1.1559265 0.36942196 -0.1916414 0.063045785 0.2715847 0.607317 -3.2215633 -0.42118457 1.7152668 2.141809 -1.3215398 -0.1967447 0.67768174 -1.7293563 -4.9375463 1.189797 -0.7269308 -1.1885513 1.7194383 -0.32147312 -0.18332303 -0.1327603 1.4359694 -2.7059138 0.71607673 -0.011608845 -1.8417244 1.8315196 -1.1459258 0.7493388 1.570689 -0.07240529 0.21612588 0.24780966 -0.17650977 -1.898849 1.5911325 1.6589799 2.2271087 0.5948147 -0.8298184 -0.302777 -2.7537835 -1.0732591 0.07734421 2.193728 1.5807288 -1.5094823 -0.30098352
vegetable -0.5529473 -0.9112336 1.0713902 3.1185918 0.70634425 -0.3430448 3.65638 -2.6253288 -0.6480184 -1.5141988 -0.6492977 -3.5886977 0.05371888 0.44893518 0.7829928 0.24472955 -0.7092941 -0.08596835 -2.4737735 -2.1663136 -0.035472438 -1.4618787 3.0533147 1.5879059 1.6051517 -2.6743317 1.1377205 0.6754806 0.97845787 -3.1316643 0.6971604 1.7716045 -0.9550554 -0.5118734 1.3417013 -0.36191583 1.806635 0.1528516 0.23251578 -1.0438889 0.6495346 0.7396318 0.41844153 -1.4318042 0.4339059 1.226433 -1.3507047 -0.2616065 3.7068744 1.9091662
vinegar 3.861309 -1.3187399 4.3676023 4.05867 2.0394132 -5.3373175 0.21436994 -0.13726802 -0.958174 1.4726877 -3.1555567 0.22567327 -1.1896625 0.8607035 -1.2356706 -1.5286441 3.796326 1.2457594 -1.0694628 1.3415443 3.455421 -1.6859194 0.63416356 0.59948957 0.29825243 -0.16079961 1.0141469 -2.008857 0.18133055 -1.8303764 -1.9615043 2.190039 -1.8370912 5.5725813 -3.0289369 2.1255744 0.6246108 6.2975936 -5.2700214 -2.923984 2.299684 -0.9546853 2.4275997 -3.004397 -1.5097669 -0.45577094 0.6957746 -1.6239612 2.283256 2.5141
parsley 0.41686693 0.81744295 -1.424325 3.5567408 -1.397487 -1.2061433 0.73734385 -4.574278 1.5145229 -0.086638555 0.1548803 -0.08368657 0.08057963 -0.24434403 -1.6482751 0.7155266 3.2484295 -0.33882943 -1.9092709 -0.93189675 0.92462623 -3.345488 0.36737475 0.64382577 -1.7570006 4.384915 -0.8612992 -0.7202557 2.4803975 0.41428778 -2.3209877 0.7648774 2.390592 1.293176 1.6900506 -1.2144271 -0.7280004 0.9515569 -0.9308142 1.2015347 1.4625582 -1.4442153 -0.6965962 -1.272977 -1.7602018 -1.8839931 -0.24992844 -0.40943313 0.7557046 -3.0876672
cinnamon -3.0415542 -4.9301577 0.4178033 -0.40224427 -0.52675414 -3.2452166 2.5930188 0.95684457 -0.005760549 -3.469931 -1.1148498 1.4974897 3.1379955 -3.930259 0.592124 -0.723414 3.5170674 -1.2730286 3.1357718 2.5542238 -1.0179156 0.46290538 -1.4575596 1.1538084 -1.088178 -2.9178002 -2.6175683 0.38440835 -5.856692 1.4278164 -2.4142108 -3.619509 2.380364 -0.96854305 0.30378616 -0.41236195 -6.139018 -3.0847278 1.5023117 0.29930437 5.618717 -0.91212803 1.1758473 0.8133287 0.21476741 2.146485 -4.825501 3.0059192 0.15910287 -3.1248386
wine 0.5703449 -0.0029876768 -1.4915586 3.1169558 -0.71982086 -0.041134637 1.7088184 -3.956316 -1.0713615 -2.2051117 -0.7812235 -0.6563854 0.46564636 1.5176487 -0.6264709 3.0678227 3.1807787 1.9574199 0.42237282 -3.8569977 -0.45876926 -2.7053273 1.5378599 0.7559331 -2.2272377 3.6906989 2.7318547 2.6957798 3.8693323 -0.3426377 2.0017872 1.1149769 -3.1068757 -0.63209647 2.03233 2.164511 2.684954 3.4245725 2.6966465 -0.59742266 2.3740544 -0.85677177 -2.052355 -3.7309766 1.8001494 2.0204792 -0.50705296 -1.248042 -3.0858622 -1.7420417
potato -3.2094545 2.0948024 -0.92806244 1.1522593 0.20071967 0.63904667 -0.94857293 0.45670572 2.3603055 1.7884897 1.600756 -0.58398485 0.036459304 0.61686003 0.52861303 2.9723566 -1.4469582 -2.397413 -1.2937119 -1.4006523 2.8447607 -2.0193102 3.0060754 0.5638199 0.49418074 -0.7117022 1.4804275 -1.6617347 4.470362 -0.5259238 -1.8703761 -1.3832157 -0.09697904 0.6519389 1.1555883 0.9829632 0.5268039 -2.7907078 -1.051334 1.3788574 3.3036141 0.87234724 -1.1302239 -1.0590767 -0.99199873 -1.3677835 1.1494609 -0.43035048 -1.7900048 -0.6776887
beef 0.5763427 -0.09210791 -2.049846 -2.8567083 -2.237733 3.0438828 -3.4846287 -2.8290257 0.25639093 -0.5547749 0.9728463 -3.6000607 -1.9618037 -0.20102112 -3.2108803 -4.050054 -4.8652105 -3.9405231 3.7422678 -1.6748184 2.6012192 -2.6257098 1.5876725 0.22938938 -2.9165363 1.8558176 -2.3889792 3.9172416 2.033317 -3.0136151 -5.611594 -0.33071658 2.8112912 0.8237548 1.6240104 1.247822 -0.6301418 -0.39936924 1.2677172 0.2766972 -0.3393511 5.957406 -0.046509635 2.2989843 0.5303784 2.1855001 1.3575175 -0.9918904 1.6117166 2.6534154
extract 0.29673475 0.24535747 -0.15732528 1.6895647 -0.44216955 -0.8302454 3.3869176 3.236233 -5.1785936 -0.25618213 2.1551023 6.557703 -0.38331565 -5.602297 1.7787108 3.2176805 -0.122989975 5.528819 4.2072306 1.6428063 -1.6864054 2.9857562 0.3960604 -0.29535836 1.6437925 -3.506446 -1.8985469 1.7451137 -3.3713706 2.1905892 -1.5615008 1.5290657 0.68264353 -2.594341 -5.230944 -2.8924117 -4.192943 -3.0123584 4.815256 3.37249 -2.3356192 4.5290995 -2.1695988 -0.8200087 5.152247 -2.0826695 -3.302343 -2.7416818 2.2334957 0.57097214
rice -3.6889763 -0.84966284 1.4872786 3.2112885 0.70274067 0.34673432 0.26128903 0.95013 4.35994 0.7759087 2.9905818 -2.1251278 -1.2186688 -0.17357448 0.3972203 -0.86795753 -3.3104854 -1.1995457 0.6157607 0.5978926 1.529428 1.9845428 2.1581097 5.103316 2.5077188 0.7572151 1.4764061 -2.0011604 1.976614 -2.0167515 -0.123711646 0.39500263 -1.6470017 1.7760099 1.282402 0.72232217 2.1789653 -0.4221809 2.6641612 -2.0526366 0.85351235 -4.4858913 -1.8298098 -3.00122 -1.3657492 1.0757084 -0.014262542 -0.81698024 -3.5023327 0.26611918
carrot 0.16929902 2.1751678 -2.3598266 -1.6149395 -3.5451841 -0.7174972 -1.3015738 -0.86417395 6.1252527 2.232683 -0.25441968 -1.5953566 4.084228 -0.059379384 1.0164089 -5.0447636 0.63448364 -4.1839614 1.0205247 1.2650741 0.03686829 1.8819513 1.3202907 0.88885695 1.3360463 0.75812465 -0.9323418 -2.3206499 2.844875 -0.38641375 -1.115028 -0.24263826 -0.9543023 1.1866587 3.1015475 1.3848901 -0.012059084 3.2950196 2.250242 1.6550564 -3.4176073 3.0117755 0.9387755 -1.4917485 -0.7313771 2.1955853 0.94531107 -1.3164731 0.45982373 -2.4317439
baking powder 3.337377 1.025238 -1.8089046 0.7522475 2.4928064 -2.3070393 -1.0334699 7.369148 -1.0389161 -2.3638196 -2.1365216 6.4987597 -1.0672344 -1.1700739 2.249368 0.14890073 1.500909 -2.5471878 0.5050472 -0.8955254 -1.4775591 1.4199731 -2.4085019 0.49229693 0.9973437 -3.8037333 -2.6857061 -1.6550144 -3.7477262 0.123917095 1.4602814 -1.6549045 0.075549446 -0.785367 -5.1233053 -1.2525359 -4.684334 -7.0846334 -1.7272986 -0.48088726 0.59885097 4.0159855 0.43228307 2.0532012 -0.4091816 0.860414 3.2513971 -1.6803565 3.5491924 4.0712667
celery -3.3698647 -1.3043914 -0.67229366 -0.83857733 -3.3740208 -1.4154487 1.6422446 -3.4508317 0.68929696 -1.6410335 4.0693636 -2.0030568 -1.1863024 -2.3394709 -4.1694083 5.257969 0.13550882 1.3073668 -0.41706684 2.3463025 3.1863983 -3.6865547 0.41270605 -6.3463554 0.6400895 -0.105534546 0.39785025 2.1958694 3.4252005 -0.5018662 -4.236182 1.2388526 3.4250114 0.98192906 5.0522647 0.4918654 -0.7871754 1.9793034 0.96332127 0.14855601 2.25015 0.4792588 0.10094533 -1.024533 -4.6826696 -2.1604095 3.8594098 2.1583166 -3.270525 2.0772026
chocolate 5.210057 4.3239784 0.79021865 -3.8083758 -2.7688754 -2.6936758 2.142498 4.806855 -7.884194 -3.5289283 -3.785727 0.4963055 0.28572008 -3.6592112 -1.5977664 2.5745409 -3.6737673 1.1753122 1.4317954 -1.1633977 0.39235345 4.817974 0.95327246 2.5962577 1.1528372 -3.3694324 -3.2650757 2.7397485 -6.1954117 -0.09383768 -1.4903376 -4.7580776 -0.6187832 -3.9812965 1.3217983 0.044118248 -1.2637742 -5.4339924 3.7459173 -2.0489905 -0.4454689 0.16186415 -3.3062274 -2.4540887 3.755003 -2.6380098 0.6410553 0.37536612 0.18942505 3.2722034
mustard -2.1764686 -0.40080005 -2.7226703 -0.72199 -0.41069055 -2.853541 -2.5026138 2.2177799 -2.4354677 4.330878 -0.117551856 -4.355551 0.014884855 -0.8838378 -1.1277075 0.33001572 1.4371741 -0.7111417 1.2026174 0.9115875 -2.2213914 -1.259007 1.1659478 -0.91814107 -0.76692206 3.0352287 0.55635655 -0.3002015 4.774163 -0.025846595 -0.48129442 -1.4239613 1.9422529 1.3918071 -1.8659859 0.3293322 3.1991482 3.643558 -2.4106407 -2.9443097 -0.26698098 -2.13104 0.11698373 -2.460879 -4.5787616 1.3086367 -0.2954134 1.2952931 0.78851783 -1.2299546
ginger -1.915434 0.26732886 3.9892325 -0.85863787 -0.1351266 0.27297923 2.810116 2.9997861 3.7461588 -4.7953196 6.043275 -0.77095085 -1.7340652 -0.893789 -0.024776863 -1.6049942 2.7060285 -1.6817589 -0.9036782 -1.1242692 5.6452217 0.805593 -2.5479252 -0.18793558 -0.5126069 0.23130119 0.55367357 -1.0343568 -1.7347709 -1.7392243 2.2930655 -4.525585 0.44614398 0.7950836 -1.5976086 -5.9599166 6.52509 3.3698006 2.3718545 -2.1897483 -2.8705182 0.9492203 4.3454814 -3.4568336 -1.4187098 3.9433875 -3.0909438 -0.80759704 -0.50428534 1.3229473
mushroom 1.3810005 1.1200957 -0.6815424 1.4647629 0.19705388 2.535091 -0.660054 -3.3690891 2.014438 1.8799794 2.5144806 -3.3138626 -0.4337855 2.936637 1.1895866 1.6053894 -0.21168594 -2.3477437 -0.023806404 -0.95826316 4.186305 -2.4377377 1.338099 -0.90350026 -1.9306101 0.84380776 -1.8720629 1.3306942 2.2516313 1.9257351 -0.59166646 1.0828387 1.7275351 3.2223732 5.188978 0.77456397 -0.8452899 -1.0250952 0.22628275 2.6536226 -1.5753862 -2.2956147 0.7906566 -1.7969403 1.1336834 -2.4092906 0.5487808 -5.148894 0.644739 0.012412192
bread -1.1872873 3.8547893 -2.988211 0.6213161 -0.24471407 -1.3730793 -3.7806957 0.35701734 1.3809704 0.46178868 0.36564812 0.21277879 0.58649236 -0.33599702 0.887622 2.855895 -0.56582296 0.16558433 0.3476317 -0.18248059 0.8059532 1.3996649 0.96467304 1.0124471 0.68086064 1.988655 -1.4881548 0.12881942 1.1109846 2.264175 -0.109768376 -0.123772085 -0.96931034 2.3781025 -0.97934234 0.30321673 -2.147592 -1.1732512 -1.5683872 -1.5277168 0.037509017 -0.774153 1.70193 3.6161513 -2.2771676 1.8874831 2.958255 -0.076005705 -1.428174 -1.4113444
corn -2.1096709 -0.17004319 2.8844545 -2.6388347 1.5251544 1.9754514 2.482055 -1.3947513 -0.7811448 0.46679088 -1.7994832 -1.3406507 0.33446085 2.0053675 3.154887 2.0902483 -2.559733 -4.9992094 -0.58371425 1.8649645 2.5164769 3.4668515 -2.61504 0.06991679 -1.3023112 -3.9942834 0.9483857 -0.87642306 -0.7679988 -3.1493165 0.07288311 0.27425498 1.977004 2.0515115 0.026030537 1.8011165 -0.039667588 -0.76985824 2.5828555 3.6768875 -1.5814183 -1.0867227 0.34542674 0.77605164 -1.4486697 0.38672897 3.0963557 0.4351796 1.664839 -1.7284559
broth 3.463169 -1.7418845 -0.6583646 -2.346604 1.3936018 1.1453052 0.7101951 -0.6809085 6.984592 3.6538255 0.98922646 0.17094149 2.0956728 -0.6098989 1.794904 -2.7124767 1.7671769 0.71090585 -1.8247765 2.312715 2.2305205 -3.060785 -3.8050137 -4.8081937 -1.9657463 2.94125 -3.4224937 -1.603334 1.0110949 1.3683243 0.07135515 -0.119982764 3.1934946 0.82949305 1.8046427 3.4843836 0.34052512 -2.0849025 3.9052465 4.291049 0.48329872 1.300662 1.1636473 -1.5304486 -2.174625 -0.02796412 -0.06559685 -2.263726 -6.1048083 -1.0685129
basil 1.8759713 0.4950453 -1.8710252 0.87014675 0.5586614 2.635096 -3.6726615 -4.4082565 0.84627515 1.8412097 0.9802193 2.3280318 2.4699156 -0.7152675 -2.4912817 0.75711507 0.9316547 -1.4215869 0.9297524 -0.5701352 -0.23213926 -0.42413935 0.06835801 -0.831081 -1.1071812 6.058593 -2.4163575 0.057601087 -1.7579188 1.725073 -0.41331023 4.3358116 1.9571041 0.21350117 3.4727511 -0.72931224 -0.29936627 0.12740806 2.0606492 2.7716105 0.5246513 -1.5840153 2.6670923 -0.7692532 -0.68247765 -0.69114596 3.7266989 0.9345813 1.9084826 -3.22881
orange 0.52238953 -1.171717 2.9048254 0.35567826 0.28534567 -3.2811291 -0.28748903 -0.18790326 -1.6239834 -1.3982561 2.4907532 0.3365276 0.15925923 -1.3587223 0.53123814 -1.8921869 2.8710775 -0.19487116 0.123868816 -1.3054478 -1.3505418 1.7698923 1.8026711 -3.9840634 1.6484517 -0.57668906 1.395644 -0.30153176 -1.0322837 -2.1608489 -0.34574023 -0.94579554 -1.4414649 -2.1299531 -2.1853898 0.9900868 -0.015339629 2.2680762 -0.7883425 -0.7722247 0.22016798 -1.793595 0.5132452 -0.19979662 1.1897539 1.3310684 -2.4415164 0.103283785 -4.3331847 -0.9491993
bean -1.5479498 -1.4569466 -0.5878502 -3.939887 1.6453575 2.7353613 2.3772395 -0.487744 0.75252396 1.4961442 -0.6079934 3.8990414 1.572153 2.4597082 -0.8553075 -2.7475488 -1.443154 -3.2145648 1.8314526 0.35602978 1.5732269 -2.5471716 -0.09659091 -0.23599139 3.710387 1.5458543 -5.1830792 2.8367214 -1.6925178 -1.7838299 -1.7775531 0.092709385 0.93877983 2.5333495 1.6749252 0.9568424 2.4800792 2.443338 0.76173276 -0.81591344 -1.9237621 -0.19036408 -0.39732745 3.4796908 -1.6579436 -0.18363617 1.3456069 1.0739899 -3.194432 1.8756782
baking soda 0.88828504 -2.64723 -4.5480533 -0.5797005 2.627263 1.4123342 -1.7283103 5.9973197 -3.667543 -6.3151755 1.6757879 4.68902 0.36588392 -3.4974926 6.5013022 4.155625 -4.30496 1.2760025 1.3452122 1.334835 -5.8034873 2.4142082 -0.895731 -1.5199999 1.7652154 -8.512081 -6.441216 2.2917988 0.57779753 2.5874095 3.3261447 -1.1727304 -0.09653936 -3.0744247 1.00982 -5.351435 -3.1584804 -3.1663263 0.2011253 -5.554699 2.8345091 1.9799052 -2.174022 2.1020703 2.2538624 2.0249112 2.068163 -0.32330385 -1.6023855 -2.0218227
soy sauce -0.10402809 -4.935411 0.69881386 -0.36143327 2.0610552 1.647911 -1.9089843 -2.7541282 1.2945938 2.1327343 5.1712127 -1.7185601 -2.1994262 -2.4569151 2.1210887 -4.456718 -3.2394648 -0.5464084 3.3173318 -4.938251 2.6896763 -5.225333 0.5280159 -0.39956346 0.24783756 0.8576373 2.484957 -2.6119878 -0.8674594 6.1230087 1.3872919 5.758159 -2.211604 4.0103045 -1.797755 3.49433 4.6820827 3.6141818 2.7919142 -0.559798 -0.53941005 -4.7432923 1.2052073 -11.473593 -0.6089079 2.4526703 -0.3745163 1.6574488 4.1459064 0.73171175
lime -1.6591343 1.6235026 1.7774961 -0.82006 6.141149 -1.0429062 -2.5743134 -3.3796217 0.3977395 -0.46704167 -2.2082152 3.1222155 -3.530388 -0.2868779 -5.7480683 -3.5656292 1.8246171 -2.18151 1.4613334 -0.92054707 2.7398999 3.8931568 5.6885867 -0.8626425 -0.7637778 -2.1154835 1.9323316 -2.096425 -1.9174931 -3.3366554 0.33534852 1.1750277 2.1203141 -2.2347548 -1.9917028 0.802683 3.1319277 5.115534 2.1055324 1.4654124 0.1084961 -3.8425589 -0.162609 -4.1053915 -2.0906725 0.11888289 -5.490386 3.4420507 -2.5613613 0.8259457
thyme -0.018838221 -1.0800706 -1.4753813 5.14916 -1.2482668 -1.5582514 -0.6730932 -4.341888 2.8614838 0.5558529 0.40755716 -0.8721269 -0.25660995 -1.2532154 -0.64557093 3.2398539 1.8943007 -0.25007248 -2.0684202 -1.732163 1.3406227 -3.722987 -0.5472138 -0.9365367 -0.9128651 2.386659 1.5800942 2.0725648 4.3959675 -1.34164 -0.66534 4.657374 -0.5591441 1.9078518 1.8546815 2.9532359 1.9700634 -0.21078745 -3.6332548 -0.57071495 3.1852257 2.665397 0.57704383 -1.8110826 0.6032249 -1.6854583 -2.715121 -0.83420986 0.5209903 -4.527396
cilantro 1.3868302 -0.6947451 4.173819 -3.9391983 3.3701613 3.0165238 -2.5114546 -0.63822085 -0.5490938 2.2583134 2.555532 1.6603185 -5.5679855 -0.6343221 -4.2802935 -5.7522025 -2.7598312 1.4956282 1.5214118 0.7301811 0.7920315 -0.49909893 -2.717052 0.69536304 -1.3154395 -1.7835563 -0.92136705 -0.6189432 0.67531943 -1.5271612 0.22645612 1.7733539 1.898268 -2.7800853 6.0484056 -4.662505 2.966171 3.468369 3.9321609 1.4046973 -0.1476397 -1.5397482 -1.6265913 -0.73289025 -3.3087456 4.5994234 4.304147 2.6683443 -2.14968 -3.6789246
cumin -6.169288 1.2532824 0.7920203 -0.114942566 2.9881837 -2.4337528 -1.2614257 -1.4000318 -0.11930627 2.963628 -0.77303123 7.029271 -1.4093658 -1.2323778 0.037700135 -5.166585 -3.2088675 -4.150136 0.6987977 1.7838014 2.8624623 -0.11104197 -5.236368 -2.5152113 -1.0257592 2.676132 -1.2400488 5.174625 3.1291118 -5.445594 2.1549695 5.0807223 -1.0365868 -2.3028274 5.206428 -2.0018322 1.7841241 1.5744069 0.2866318 -0.20056078 3.4416869 2.5772066 1.1417233 0.13529651 -3.301596 -1.1986328 -3.605851 0.36999917 3.9912632 -2.591104
chili -1.663967 -0.066765115 -0.5338005 -1.4325929 2.709048 3.8118584 -0.64798737 0.97093564 1.7826011 2.163648 -2.515051 -2.2189875 -2.3042448 1.0413613 -0.55954057 -4.4225903 -2.7688787 -1.0157167 0.23764107 1.9936259 4.4746304 0.07721153 0.042338114 -0.22622702 1.523769 0.65076476 -1.5798628 0.6776254 -3.3553753 -0.778336 -0.88343924 0.38881811 0.9580519 0.84926665 1.135049 -1.8718835 -0.18960696 3.0564797 4.35342 1.781642 0.530535 0.6218174 -1.8913333 -0.16333856 -5.9809203 2.6659505 0.12700778 -0.3903019 0.4651255 -1.5781124
honey -1.969641 -0.18648885 3.0404735 1.5553024 -0.27264965 0.69256395 0.7014871 1.9607286 -0.76808566 0.66569144 0.6448916 1.408949 -3.7104695 0.8473713 1.3250444 -2.3897862 2.377292 -0.050104942 1.1647646 0.108839355 0.044754434 1.2204909 1.5998021 -1.20027 0.7832204 -0.86818916 1.1897352 2.316114 -2.563436 1.2707304 -0.10618881 -0.6407335 -1.6964488 -0.85042936 1.4397908 -1.7944249 -0.91604984 0.08193974 -1.6018183 -1.2703217 0.095236324 -2.6068356 2.5154736 0.45239666 -1.4418428 2.5494945 0.00425699 -1.5064244 -1.1937591 -0.06024902
wheat 1.1964959 -0.87632275 -2.0003343 3.2417223 -1.4146653 -0.044053923 4.1882477 1.2802558 0.6297052 0.8880301 -1.015088 0.28950578 -2.287337 1.8212227 0.78375506 2.3652303 -2.399971 1.1402818 0.9123017 1.6723617 -4.334292 2.13461 3.536153 0.7894064 3.3393748 -0.12094488 0.9552125 -2.275214 -1.4546562 0.76731753 -2.121221 0.15894386 3.655877 0.95272523 -1.4174016 -1.5210134 4.725378 2.5735097 -2.0228198 -0.2884375 2.8201005 -1.6919544 0.32437477 0.17911254 -0.9043077 2.2634473 -2.6515393 -2.4376628 3.2552166 -0.6905438
seed 3.061607 -0.37369397 5.464368 0.9688034 1.9323322 3.0717258 3.1610112 -2.7345846 3.16545 -0.7793355 -1.8246086 -0.9092258 0.4600827 0.51429296 3.2533731 -4.149159 2.1693628 0.66292876 2.510208 0.41786623 6.0376887 0.59850734 2.4866836 3.2941747 0.8047293 0.07253423 2.6040397 -1.5527447 0.6039446 1.4326625 -1.1815344 0.42025712 -3.2211113 -3.8334978 -3.3338387 -2.7763376 2.0282524 1.1593477 -0.8406017 -2.3006594 6.529907 -0.66220677 1.1594769 -1.1396837 1.5190846 3.8805964 0.6800221 -1.0866157 0.92236495 -4.484505
oregano 1.3002074 -1.8149135 -2.183007 3.0600457 -0.4853789 0.8123589 -0.4367654 -3.4112084 0.37517017 2.8976958 -0.6758962 -2.1445403 -0.535947 2.9723601 -1.441425 0.6378239 -1.368966 0.9400056 -1.7988713 -1.7261834 3.0484345 -3.4476514 -3.6587312 -1.8334495 -1.564767 3.0469465 -1.8212625 -1.4021947 0.20889711 -5.8501916 -0.70608777 -4.02715 0.2946283 1.2611604 -0.04385523 -1.2833645 3.1987827 2.4337792 -0.009957675 1.3538011 1.5252936 -0.53206235 -2.454836 5.033771 -2.0611272 1.0799608 1.3015852 -0.27822244 0.42048767 -3.5430608
apple 0.9592873 -1.1012317 6.133197 -1.5869396 -0.7223281 -3.787925 -2.0969193 4.84484 -0.87768143 1.0322012 1.789515 0.2015323 1.7429535 -1.2197992 1.063796 -2.1116586 0.20735447 0.06711625 0.8538614 5.559779 0.5735069 1.5431461 3.3346796 -4.8525434 3.2268481 -0.018197794 0.4936277 -0.06497621 2.248319 0.31849924 -3.67631 -3.001046 0.94631475 -1.9743932 1.035104 -0.5050677 -1.9295927 -0.007585278 -2.7731955 -5.2063394 -6.0693693 -0.276704 4.878449 1.9659698 0.7260224 0.3034262 2.5201125 -2.0331688 1.7575961 -3.66861
cayenne -0.6801918 0.09871772 -0.708237 -2.8832252 0.7774797 1.41221 -1.2529918 -0.39038306 1.773852 0.43217143 -1.6833752 -0.12128964 -1.7535322 0.9528243 1.7870126 -1.9966967 1.0250798 -2.0839722 1.5884516 1.7991337 3.244819 -1.2488117 0.51198786 -1.2119241 0.52781546 1.1801214 -0.083438195 -0.76470226 0.302273 -1.8920801 -0.28492588 0.031334326 1.4542332 -0.04989579 1.1135845 -2.5278828 -1.6505696 -1.2452227 1.6761333 0.9808587 -0.6149137 -0.78065103 -1.6841534 -0.043977205 -6.532413 2.6880841 1.363637 0.14292695 0.9175781 -2.3753154
bacon 0.23410612 0.6089525 -1.6766987 -1.581827 -1.8373706 0.53901225 -3.0743876 -2.4876416 3.805316 3.277629 -0.40084684 -3.3479412 -0.47571355 1.382503 -0.6096985 3.8650396 0.31952107 -0.78271693 -0.010542458 2.3779967 -0.19188069 -1.6647322 -0.8628589 -0.15167196 -1.771757 -0.48918068 0.07405882 0.68571204 0.82025564 -0.30225056 -1.583424 0.6094759 2.3280597 0.46314186 -0.57093924 1.2126706 -1.0656595 1.7614598 0.9284908 -0.8382086 -3.8771205 2.5074165 0.7507039 3.5750659 -0.45712873 -0.41998038 2.9706686 2.4074688 1.0182225 -0.86066407
stock 2.6564026 -2.730182 0.36637512 1.9021552 0.82338333 -0.26024094 3.2964456 -0.030054614 5.707005 1.2911499 0.5918339 -0.49901268 -0.18595412 -0.3964685 1.9201968 -0.8280813 2.5789313 3.3787098 -3.3947423 -0.48739243 3.564358 -5.1145573 -0.3237639 -0.5451438 -3.4192674 2.1416001 -2.0071836 -2.9583604 3.110346 0.5535003 1.5905945 0.4692185 1.6188151 1.7079576 1.8379363 4.165862 2.2104244 0.41862488 -0.18776305 4.2051735 2.4641566 1.1403239 -1.7658981 -4.2246356 0.00079379324 1.8011289 -2.8438506 -4.3071465 -4.4211726 -1.1980125
stick 1.9682115 -0.26713458 2.6043677 0.5710735 -1.8830234 0.10657257 0.6371704 2.352244 -1.1881392 -0.5953612 -0.9719049 0.6306955 -0.08049618 -1.088979 -0.34160155 1.5454575 -0.50039893 1.1227714 -2.2539175 0.013003038 -1.9185793 -1.2287551 1.3927689 2.137207 -0.3964642 -0.022067448 1.923532 -0.46576637 0.9958067 1.0765861 2.6094909 0.10643895 -0.7619375 0.3709514 1.0826094 0.6087823 1.5401953 -1.8137782 -1.7848866 -0.92368054 -1.1977557 2.0266433 -2.1743665 -0.011007849 1.2824464 0.97909313 -2.2619107 -0.9584253 1.0404545 -1.171327
margarine 1.6025281 0.7003927 0.0765047 -1.2375535 -3.4780781 0.56374425 0.66696244 -0.973716 0.77945715 -0.9271837 1.9134855 -1.0458788 -0.3117333 -0.27401423 0.025744371 1.699006 -1.0627686 0.6590313 -1.9567143 1.8182743 -4.425616 -0.03596842 0.4374154 0.71260464 1.747921 0.13078071 0.3973152 -0.67863166 -1.0245426 0.71554464 0.94039154 -0.22005063 -0.18763283 -0.8824334 -1.387849 1.4315597 -1.1809136 -3.411311 0.63554996 -0.5885778 -0.9497677 1.6759629 -0.27121246 0.7039209 -0.6390968 -1.631454 -1.4130764 -1.5554109 1.8372365 1.4035625
pork 0.024564093 -3.4767416 0.4919089 1.7572645 -1.9514209 2.73178 1.4173286 1.8334091 -0.10221083 -2.0503576 -0.0037701407 -4.0941663 -5.395793 -0.99156755 -1.2085027 -1.1984023 0.9644112 0.8376222 5.2663946 -1.572651 4.9066424 -0.3999962 3.132866 -0.79352975 -5.0131345 2.0085728 2.180222 -1.4558685 4.3577647 -3.1658604 -0.74084574 2.7166889 -0.095001 3.5637243 -0.7845608 2.6262856 -1.1889511 3.0281632 5.2754393 -1.5504245 1.7028607 4.923215 0.7544055 -2.3096595 -1.0520653 -0.53710014 -0.52290255 -0.8212583 1.5002923 -0.8755631
seasoning 1.0013515 -0.55666846 -2.753212 1.0239947 -1.007003 -2.1580617 1.1962816 -2.948471 -1.3978889 4.3293524 1.7436223 -3.7066305 -1.9418161 0.86506796 -1.9210756 -0.2990911 -2.6177704 0.48417076 -4.787919 1.0564196 3.101997 -0.012322572 -2.081892 -1.3002024 -2.1756234 2.2919707 1.0777695 0.57124555 1.9100304 -0.26835185 0.53559536 0.25397632 -1.2804513 -0.92931044 0.9795019 1.2035452 3.2958612 2.2257164 1.6103778 -0.2462526 -0.49012786 -0.028346851 -1.9480754 -0.5238606 -1.3766404 -2.4849684 1.9677906 -1.1314946 3.0262482 -1.6944791
nutmeg 2.3164766 0.3119878 -0.17672977 1.7699659 -0.2546046 -1.9030973 -4.4359303 1.0926808 -0.8143573 1.0208064 1.7185202 -2.3340037 1.4891342 -2.3554926 -1.2441313 0.5292304 0.6544709 2.382869 -3.110766 2.336175 -2.4005852 -2.6598392 0.23709626 -1.4199877 1.615222 -1.9393154 1.1339223 0.0055259145 -0.28297922 1.5241625 1.8910267 -2.4413772 -1.1487738 -1.6834575 1.5580527 0.7623402 -0.035785165 -4.5007234 -0.18547282 -0.22696275 2.3657732 3.608288 -1.8602622 1.618349 2.69904 4.874209 -1.1290095 -0.81688917 4.5007486 -1.0452555
mayonnaise -2.536495 0.37546822 3.8555553 -4.2963967 -2.217227 2.846634 -1.5913689 -0.3159482 -0.2828703 2.4627514 2.1988661 -1.8148733 -2.485497 -0.78171885 4.711482 -1.1589181 4.154658 4.759285 -0.086823985 -0.08715109 -1.3218 2.0440576 1.5388352 -2.1746044 -2.0664356 1.8338524 -2.8758404 1.4737158 3.6306634 0.41664273 0.05371767 3.646982 -0.5392445 -0.96530956 -4.1755037 0.10142456 3.1903753 5.0725923 -4.009935 2.3955445 -0.77862686 -2.194411 -2.1251009 2.3138855 -4.6563067 -3.6350558 2.2638414 -2.5746608 0.7498056 3.2483487
almond 1.4339992 2.1191552 1.9083483 -0.122643776 -2.121066 1.6584963 -0.43560627 1.3255708 0.75063354 -0.34483948 -1.5657912 1.3583379 2.6731098 1.9468907 1.9760568 -2.0220098 0.79281557 -1.1693107 2.6088047 0.74447733 -2.8490453 5.7008705 -2.7168062 -1.8002315 2.314409 -0.9250413 0.38854945 -0.029599173 -0.8091542 2.9915931 1.4078006 -3.6980758 1.796666 1.2065669 0.8250214 -1.4377034 0.023253072 -1.9274751 1.2106911 -2.4752667 -2.0423722 -0.65964216 -0.26477477 1.9134719 1.4772234 1.7305958 0.04787444 2.692502 -0.9671969 0.7555278
chip -2.302253 0.8151294 0.924796 -0.100600675 2.8829248 0.6404398 2.117532 -2.3877552 3.3004107 -0.10699832 -1.665243 2.7099593 0.99110353 4.1077085 -0.86200315 0.108549334 -3.088226 1.8605928 0.30563578 5.0119104 -1.3095458 2.0970385 -3.2041075 3.2790828 1.2025197 -3.139498 -2.6700501 1.415181 -4.6844406 -1.9851352 2.2029626 1.5916871 2.8838403 0.6284831 -3.6811423 0.11620168 -2.9314182 -2.1263046 -2.401553 -1.717748 -5.2684555 0.20451228 1.9060391 1.9090717 -0.3714067 -2.586316 -1.1846465 -0.5495512 2.073586 -2.2401783
paprika 0.40354213 -1.5336636 -0.62533617 -1.9960119 -0.8862787 -0.21063124 -0.90200317 -2.8128831 -2.3170543 1.7600522 -0.94543934 0.38433495 -0.85140383 1.7522243 -2.737651 1.7343409 1.4523861 1.0397928 -0.9089775 -0.7703678 4.3203063 -2.2981849 1.8853681 -1.1368659 -1.5236571 1.0301962 -0.731208 -0.8885711 2.0525415 -0.8773163 -1.6203437 0.8073753 -0.5875062 -1.0784016 0.91561276 0.6623227 1.8064685 -1.8012508 0.059920046 0.66469085 1.1417168 -0.10109675 0.54466444 -3.1358232 -4.8233285 2.8097067 0.9313546 -0.08497932 0.58078134 -1.0405188
coconut -2.6493015 -1.6779999 4.404998 -2.3752024 0.25617865 -1.004176 -1.719952 2.3529844 0.762886 -2.2819521 1.3340665 -1.2907931 1.0057557 -5.2386727 1.4077793 -2.9225686 -1.4789895 -0.65806484 -0.82063615 2.0842237 0.55579406 2.8524847 -2.659532 0.619468 4.546328 -5.734444 -0.7213197 -0.27201623 -2.3468018 -2.061747 0.9198696 2.2347493 1.6993413 0.7070733 1.4815633 -3.6957815 1.0571663 -3.758487 -0.32743093 3.3811905 2.0131829 -1.9282312 0.6153882 -1.0008336 -0.84596825 0.61401886 -3.3696215 2.7675683 0.81988204 5.149379
syrup 0.55813307 -1.951882 -0.53124124 -0.07877006 0.38183334 -0.47089672 2.6492634 3.1094723 -0.9899367 1.592009 1.7842138 3.5741425 -2.7823157 -1.8972874 -0.37634784 -3.614296 1.9276508 3.8192482 -1.0262717 0.4157645 -2.2186985 -2.7109427 2.9306085 0.950562 1.2389838 -1.3279407 -0.23459966 3.513573 -2.199786 1.0111331 2.8586366 -1.8292389 -3.6047196 -2.694223 -1.7146254 -1.8809242 -1.0079901 -2.2308083 -3.1089628 -5.226875 -0.23779164 1.437278 -0.95822835 -2.3330762 1.8488148 -3.4026237 -5.343973 1.916579 -1.1255375 0.9805404
peanut 1.8493257 0.44153476 4.926789 0.80758184 -0.18302639 -0.28795674 2.128513 -1.7234555 3.1585724 0.27941862 1.5716487 -2.863349 -0.044246733 -2.0937374 1.0388573 -3.908596 -2.7659369 -0.025062932 3.567267 -1.8077378 -1.6790087 -0.18214445 -4.6788645 3.5900245 -0.6141144 -5.913713 0.23843965 1.17558 -0.9705356 -0.3167385 0.73229 0.027549528 -1.5314707 -1.171215 -1.9248104 -0.26701877 2.4374995 -0.019324003 1.8697503 -1.013963 -0.35885987 -4.081269 -1.0994037 1.3978171 -0.72385395 1.644112 -4.088671 0.35433614 0.18571797 3.0736651
soup 1.0144548 -0.71581054 -6.2949266 -3.7169473 -3.6536937 -0.22468168 1.0349311 -5.932139 6.311099 0.05309542 -0.013384163 -7.624873 -1.424126 1.4734865 -2.7807674 -2.266565 -0.39025873 -0.823533 -4.2868066 2.2452598 0.0006158242 -3.3015003 -1.6765397 -0.8752668 1.1015772 -0.3133609 -1.2178843 -2.0073981 3.4282758 0.047487855 -4.768908 0.010039616 -2.8582733 -2.979287 -3.4628954 2.660898 4.177683 -3.3229058 1.637915 2.3216696 -0.006413428 -0.7424876 -0.28172535 -1.5499904 2.7118232 -6.9815702 0.05922398 0.4573291 -0.37157255 1.1743908
walnut 1.9944589 0.6545057 0.79558724 3.4709523 -2.2768016 -1.6219529 1.8600317 2.3381977 -0.83887976 0.20049398 1.3242295 0.42737243 2.7168703 1.8820368 1.6230136 1.8086934 2.4956274 4.008395 1.6485143 -1.1744708 -4.481049 3.9725149 0.6558756 0.52818626 1.1390887 -2.212026 1.8680732 1.0365639 0.85023767 -0.7790414 0.0018231249 -3.7641723 -0.9134267 -0.18468052 -2.5199754 -0.8186237 0.48627606 -0.4881596 -1.2565885 -0.56532395 3.26427 0.21437052 -1.3608754 1.350875 1.7545183 1.1755223 -2.0885832 -0.3037292 0.66883415 0.77444196
cocoa -1.6708506 3.5964022 -2.3976767 -1.3948289 4.725082 0.041196343 -0.29433018 3.1901047 -4.129913 1.4675099 -2.2385774 1.4712262 4.2312226 1.4894897 0.3160099 2.2256088 -3.5255857 -2.0842528 1.0475553 1.7965096 -3.8470685 0.044295613 -2.4735718 2.134906 0.73706126 -4.510164 -5.32328 -0.35414654 -4.741169 0.78243995 -0.30156854 -3.2474744 2.1310747 -0.29679784 -6.1347466 -3.163634 -0.4939705 -3.3008769 -2.0827534 0.4248783 -3.3931215 1.0937929 -1.4040781 -4.629732 3.66333 1.6887788 -2.5343635 0.935677 0.07303605 0.1851897
cornstarch -1.0742939 -1.1973435 -0.21198173 0.4149317 -1.3541533 1.2320141 -2.7065334 -0.7486452 1.9308017 -2.8496263 -0.6359974 -1.5463085 -2.4565604 -1.504789 0.9843947 -3.5296366 0.23893578 -2.01746 -0.2442855 0.31367695 -0.7125396 -1.0364411 -0.85233736 0.61681557 3.3187892 -1.6025504 1.2697897 1.0707643 0.27108967 2.473829 -0.37594572 -0.80191934 -1.860672 0.24836017 1.7263114 0.1290457 -0.06427365 -2.1333888 3.5753407 -2.703386 -4.9706054 -0.39073974 1.0298721 -0.9582231 1.123293 -3.0244687 -1.9437132 0.9985847 1.3721997 2.4296253
yogurt -1.64425 1.0009751 3.7997894 1.4127702 -1.1286092 -2.1671941 2.1720772 -1.9115444 -1.9540987 1.5001514 -1.5419513 2.490556 -1.1706904 0.28193986 -0.7217035 1.3390015 0.07337694 1.1909992 0.6011133 -0.7898478 -3.487095 1.5047132 1.422261 3.2723286 3.2074664 0.80214876 2.7874203 -2.5069776 -0.7021142 -0.6740359 -1.6517136 0.514317 -0.34692633 -0.8348472 -0.1475809 -0.89638406 1.573124 1.3660203 -2.4714317 0.6475971 5.7591786 -0.3319958 1.2670974 0.59158444 -2.0674984 1.096916 -2.3063335 0.3204963 -0.117775604 1.866141
scallion 1.7806745 -1.8854266 1.1333554 0.90173143 2.6825001 -0.30977997 1.9897748 -0.8291923 2.1751277 -0.9036118 0.15171131 -3.475914 -2.8582072 1.2229072 -0.74248505 -2.760375 2.126646 -0.41352126 2.3424015 -1.572498 2.1446311 -0.5864998 -0.16477156 0.10571183 -0.6413161 1.0727221 -0.5498365 -0.56401867 0.23179603 0.15801193 0.77045697 2.6645114 -2.009077 -2.3698738 4.2048073 1.1698922 2.4509757 4.182884 -1.7616707 -1.2945765 0.051423065 -4.223922 -2.049608 -4.4379196 -1.6241454 -0.76514155 1.4283683 1.4444323 0.0887402 0.29487234
pecan 3.13403 -0.009307655 0.80077773 -1.5319703 -0.5866506 -1.1534967 0.30557433 0.9882057 0.36488673 -0.43060678 0.6509479 1.9260346 3.360886 1.2633365 -0.033588514 1.2752104 0.81960726 2.226979 1.6641084 -0.4659986 -4.044799 4.3942733 0.36431372 0.6310667 2.9234357 -3.2233915 0.029199576 2.5166144 -0.35499817 3.0883453 -0.45936614 -2.6326342 -2.1847644 -2.2186859 -2.1711984 0.96119505 -1.200291 -1.1580609 -0.749745 -1.5102996 0.1791028 0.74342924 0.2817509 1.4909765 1.6749829 1.6152154 -1.656406 0.31589633 2.8936539 -0.7483139
bay leaf 0.05982087 0.8168225 0.31417257 -1.6509057 0.49777487 2.7623575 -1.6685529 2.5200076 4.394953 -2.4287107 -3.2656205 -0.13972703 3.935003 -2.1400151 -2.309633 -0.8472865 0.30568433 -4.1899986 -3.131432 3.0499244 2.1499999 -5.6591315 0.90065837 -2.598747 -3.9634593 3.269587 0.18739377 0.15553588 3.2952912 -1.9806827 -0.42693773 -2.2202823 2.9412837 3.2066414 5.312561 -1.7254092 4.786609 -4.268637 2.0392427 -0.10155989 -0.7769715 3.6159446 -0.24194714 0.05306012 -3.4669855 -0.23634072 3.2766073 -1.9507427 -1.1559638 -3.3288865
spinach -0.71198505 0.23670277 -0.73384595 3.1131632 -0.9191757 -0.40648028 2.6595454 -3.7596345 0.46375537 0.22836299 1.3161432 1.914359 -2.3184297 1.8445747 -1.7033279 -0.21883628 3.9017422 1.3008882 -0.70634854 -1.3282236 -1.8848715 -0.74494994 2.181173 4.501495 -1.0983682 3.2453618 -1.6322305 0.14190881 1.1440463 1.0775056 -1.3657658 0.37386167 2.9215095 1.6379764 2.2425761 0.40881178 -0.6321729 1.3677031 -0.50896674 0.7714189 3.3923311 -3.619814 1.2124087 -0.45976928 2.2215757 -2.5198038 -0.6519331 1.4894253 0.40810502 0.22348568
pasta 3.3214307 2.1893759 -3.9247265 3.1742768 -2.1682127 4.4345427 -3.356758 -0.3809886 2.9073737 3.1653063 0.0649328 2.7424066 -1.0795068 1.9454494 -3.739952 3.3285522 0.10381588 -0.055996306 -0.73295265 1.0797385 1.0015985 -2.6331928 1.0087003 1.6518193 1.6796192 3.7901878 -0.45272997 -0.69532925 3.1606615 -1.670015 2.1575954 1.1048831 -4.152049 4.944234 3.813291 -1.671513 0.3937112 -1.4228663 2.139722 3.1814551 5.320087 -4.526874 1.0879406 0.12707978 0.39516884 -6.1932964 1.2436533 -0.87855536 -0.3411756 1.2160408
ice -1.355492 -0.3444518 -0.14722115 -1.2760383 -1.2404639 1.3944621 0.29957265 2.969402 -1.6973141 -3.6533983 -1.1043096 0.34202358 -4.271647 -1.6535798 -2.8349118 1.4165488 1.3524858 -0.91038746 5.5918474 0.089850955 -1.3217506 1.0384037 -1.7642877 -1.6721683 3.7458103 -3.3623857 3.4226177 -0.16104431 1.233309 -2.649186 2.1571198 -1.108743 -1.5557139 -1.166318 -3.4634373 -4.0841527 -3.5107477 -1.3502777 -1.3523825 1.1575166 -0.44635025 0.7408004 -0.8800559 -0.49950787 5.0731344 -2.2555356 -0.4309332 -0.07626414 -2.3272831 -2.7000527
worcestershire sauce -1.046205 -3.9763665 0.6747282 0.23061083 -2.7840524 2.1876216 -2.5520098 -4.367104 -2.052571 1.1469136 -0.31983697 -2.6101003 -6.058796 1.0178846 -1.4889246 5.2839546 0.26969627 -0.7022522 -2.824873 -0.0038066378 0.5199792 -6.412277 -0.53198755 1.2766147 -4.190248 0.7695426 0.91185427 1.509536 2.6057067 -2.4939528 -0.718232 -0.87710756 -3.1100287 -0.9157872 -3.231574 1.9500196 0.41616386 0.5423154 -1.3349607 -1.982795 0.48989642 -2.2092884 0.8475218 -1.2575017 -2.291646 -1.9371428 1.0621853 -3.1602218 1.6956139 0.37277755
shallot 2.54059 -0.69359183 1.1059421 2.083452 -1.0320438 -0.9511755 -1.4950554 1.9807792 2.3803446 -2.6376128 -1.7760649 -2.5426586 -2.6600726 -0.084082976 -0.8299568 2.0974534 5.1369133 -0.51184386 -0.8349891 -5.711834 2.0456336 -1.4686035 -0.16172318 -0.15351346 -0.5992836 3.3027294 0.4591922 -0.11029961 1.355528 -0.25409377 1.778752 2.73708 -0.54301465 -1.6978928 4.052197 0.89705926 1.0141194 1.6797341 -2.5940852 -0.72316754 -0.24205767 -3.365732 -0.56196386 -4.3868785 -0.2629568 0.41081864 1.8527055 2.7279603 -1.7547433 -1.048389
sesame -4.5806556 0.046218682 -0.69120294 8.261191 -0.9323977 -2.4819736 2.9789565 1.7313664 -2.7183003 0.6726387 3.0932045 -3.6905525 -3.9968476 1.3896646 -1.9227207 0.43995732 -2.60473 2.3644276 2.961569 0.004570505 -4.4573283 -4.8217845 -2.3464391 -2.4189017 -0.43872476 -5.3798695 1.7297691 1.3744482 -3.2824035 -2.485852 2.9062495 2.7633178 0.49291837 4.291719 5.245896 3.5394433 3.108755 6.338892 0.08328159 1.3508203 -4.254235 -6.355551 1.7350398 -7.675933 -4.5924745 0.8979927 -4.488844 2.9429467 -0.89891046 8.571524
shrimp 3.6690907 -1.8692471 1.5638467 0.83089393 3.5862262 1.8031645 2.7656045 -3.1909225 -2.2095337 1.0973655 5.2951035 -1.2315488 -1.4426033 2.8657906 -5.531127 -0.83064055 2.4531107 -4.0767436 1.9625852 -3.3126051 2.03314 -1.1305757 0.40109038 2.5378819 -1.6751208 1.0306643 -0.32550725 -2.0685356 3.627557 -1.0810354 3.6478634 4.310515 -2.1763232 2.4293032 -0.76202303 0.0016385472 0.6937786 2.9275084 -3.795877 1.633819 -3.0737555 -2.485105 -4.6523 -2.2680013 -2.0279598 0.7957596 -1.515095 0.84976846 -0.16320285 1.5058371
jalapeno -2.1715376 -1.1940328 -0.3820199 -3.3842466 1.2222456 -1.4272178 2.3526697 1.0558114 -2.2992766 2.579756 -0.492211 0.73671055 -2.4205472 0.8765622 -1.365141 -2.7579417 -1.8446932 -0.79341525 1.1948805 -2.4328256 2.195913 -0.46315306 -0.10384903 0.100109935 -0.9628727 1.2946901 0.9124864 0.1631946 -1.1654216 -4.2595553 -1.834523 2.1409905 -1.4442747 1.9316384 0.56962985 -2.8394878 -0.5458264 3.4158816 1.9586387 4.4020696 -0.6903223 -1.5416039 -2.0214167 0.409454 -6.512739 -0.9258341 -0.47521222 2.92734 -0.49163997 -2.3974001
pineapple -2.3826191 -0.94494885 4.351838 -0.24223424 3.3064885 -0.6327184 1.8981092 -1.0498661 -1.6642455 -1.2371616 2.3750482 -1.6116139 -2.946975 3.3745158 -3.075686 -2.3748205 2.0193777 1.5092156 0.96026814 1.1290531 -3.6036801 2.4038966 3.2222826 -3.5047176 -1.8056952 -0.55636466 2.4884336 0.18315816 -3.110891 -0.036420748 1.3345612 -4.479019 -0.48900265 -0.31608143 -0.94757414 -0.10265286 -2.2544 0.01686642 1.8916103 -0.9392054 -0.300194 -5.5421743 -0.5624422 -1.8049148 -0.41807586 0.72959197 -0.10248577 -4.3332853 0.87651706 0.81082934
lettuce -0.18963857 2.5604508 2.3637335 -1.8181456 1.9284292 1.7383178 2.088502 1.977711 0.3620997 2.8991084 -3.1022813 -0.5366043 -4.5678773 0.24259101 -3.0030315 -3.721426 1.8347378 -0.4221731 0.54678065 0.8924095 -2.7516103 -1.7054837 -0.1299451 1.174532 -1.8100207 1.6058998 1.978023 0.60116774 -0.10230559 2.95739 -1.9019749 3.17167 0.24684253 0.51614654 -2.5528293 -4.025468 1.4241079 4.1788106 -1.0351101 2.5667796 5.386131 -8.121302 4.106395 -0.85901606 -3.5062823 -3.3190627 3.3422778 0.15670685 -2.1262925 -1.5523577
banana -1.3046609 0.4302811 0.8151135 -4.706673 -0.5085215 -0.90510195 1.3822337 2.4135387 -0.8680463 1.4628408 0.89073235 4.62054 0.2601971 -1.156164 0.45476618 -1.2569537 -1.3061974 0.35058758 1.2423544 0.93262935 -3.6876006 5.3502274 0.8189315 -1.1398152 -0.43173826 -2.298827 0.43344727 -1.4910545 -2.9174383 2.323155 2.6882908 0.44207817 0.3970823 -1.4674449 -1.2266133 -1.7116166 2.2688193 -3.6854725 -0.71526986 1.9640236 -1.649449 -0.6334833 3.0183868 -0.6579948 3.0979836 1.8575394 0.0932473 1.6695718 1.4437809 1.0906624
sausage 0.4088727 -4.8051786 -4.883789 -0.28824234 -0.5839353 -0.39844573 -1.4681227 -5.122273 2.8757164 0.15298285 -2.373898 -2.372616 1.9843123 3.20253 -1.3815218 0.58954513 -1.4052855 -0.1457278 -6.490667 1.2221682 4.6500278 -2.3374796 2.0024338 -0.48516634 -2.5741389 -1.4513913 0.4445517 3.408075 0.10973898 0.026758019 -0.7265451 2.21698 -0.5014036 3.8471134 0.8589482 2.4789727 0.87398547 0.22823071 -2.7028139 3.2844694 2.6943922 0.77982706 -1.235819 2.3248382 1.2812788 0.74381226 -1.8719084 2.8172643 2.3455644 1.3721132
nut 1.4949605 2.934699 0.23332834 4.276825 -0.21009219 -1.9759474 2.664577 3.1664686 -0.09184421 -1.4257463 3.021567 0.52279794 3.7583172 0.5856345 0.50939786 -1.168195 -0.24299829 2.2721472 1.5802189 -1.3367486 0.91500396 4.8571014 -1.1178087 -2.3544557 3.1615458 0.2386306 1.4618338 2.6222084 -0.66859555 1.1060563 1.3433306 -1.8470657 0.45715833 2.5627956 0.21113823 -1.3724097 1.6363399 0.5747667 -1.3267064 1.3252556 4.3957906 -1.299308 -4.015162 2.8611093 0.6524198 1.4550203 -2.6102571 -0.40323874 0.98790544 1.1626747
rosemary 2.983238 -2.660088 -1.7405593 3.8946643 -2.8540652 -3.0025334 0.13641101 -1.866119 0.20409824 0.3077855 -2.0259228 -0.26196712 1.5483214 -0.21861377 -0.29631174 2.4930093 3.4604976 1.0926495 -2.633755 -4.13995 1.2056198 -2.6236491 1.3142015 -0.48943323 -1.5960332 4.825577 1.8695817 0.9697135 1.318239 1.2479314 -3.54051 -1.3041391 0.48022714 1.555256 3.769397 0.5502471 1.7763994 0.9044883 0.75104547 0.38682705 2.1154583 1.3461933 1.3345407 0.87210083 -0.6643527 0.2966485 0.42102686 -1.3888291 -0.2795528 -3.2938633
strawberry -0.8694474 -2.2068243 2.2407594 -0.68654144 0.14553647 -2.4136353 0.006176658 2.08935 -3.1999717 3.9569097 -1.5852201 -4.218359 -1.2251272 -1.9521998 0.64727455 2.202707 1.0910715 -0.61834675 1.6902273 -2.2286942 -5.279749 5.0861387 2.449323 0.43409187 1.5692319 0.14691922 1.987518 -3.0639234 -3.768852 0.9774344 2.790195 0.71847963 -0.24464516 -0.80818164 -2.8364918 -4.199817 -0.5918879 2.0562747 -0.17718793 -1.0909057 -0.025535284 0.57319593 -2.5859232 2.5537858 5.3184347 -2.856613 -3.3473444 -1.5646054 -1.2954265 1.8966286
cherry 0.9776825 1.3740267 0.39431828 0.45519164 0.39053553 -2.0205288 0.032608632 1.6119432 -0.4856548 2.3246064 1.9275653 -0.102371536 3.0549269 -2.8070636 -0.9185446 -0.35799986 0.5511141 -1.7335914 -0.22895871 2.3589427 -2.1764042 3.7995071 -1.7498463 -0.48389858 1.8476446 3.420879 -0.21002102 2.9676533 -1.3850393 -1.0878061 2.167205 0.35282877 -0.2564554 -0.83570766 -0.74778557 -0.53724885 0.25078562 3.6991963 0.19758275 1.503844 0.16018727 -1.5744938 1.35844 3.2829907 1.7855368 1.6213133 1.3646472 -1.2443026 -2.249744 0.8804666
yeast 5.202519 -4.669469 -5.75115 6.5867147 0.9152361 -3.2236469 -1.3673894 4.8485193 -3.1866608 -1.6731697 -3.5131512 3.749756 -0.7759549 1.2227969 1.776256 2.4360008 -0.2324282 1.8924487 1.1456394 3.8176444 1.0425801 -0.07880022 -0.47565973 -0.2543583 -4.98579 -2.7417955 1.3632141 -2.447582 3.761874 1.3463583 1.2395736 2.0503504 3.9298048 -3.2673328 -5.4839387 -1.9992108 2.8051426 -4.379784 -3.0449817 -1.6004986 4.731923 0.43449977 -0.034491736 -0.44663626 3.2229242 -0.014783791 -0.8548554 -1.0475442 2.4371407 5.994397
pea 1.1744744 0.15756457 -0.08824466 -0.47035757 3.82382 -1.7070488 1.3867658 -2.9886656 3.9843714 0.23336941 4.1318154 -3.50566 0.45693427 3.0622294 -4.742361 -2.2684097 1.0624405 3.5889094 1.4700657 -0.87676024 2.1782963 -4.7808104 1.9172146 -0.7629667 1.669239 3.5219111 -2.156194 -0.55726326 1.0404953 3.2263064 -2.7641313 0.7706611 2.1069682 -0.20851615 4.213482 -1.6520499 0.7453509 1.6079466 -0.20161413 -2.5709789 1.9375368 0.95013785 -3.6022859 -4.315008 -0.67457473 -2.814391 0.3486415 -0.07630408 1.0972078 3.3015761
coriander -2.113915 0.69146395 2.2813013 -2.1254017 -1.0783896 1.1696174 -0.8185699 2.0055394 -0.99495244 0.4966866 -1.4522339 2.1633592 -1.9648182 1.3453835 -3.333361 -5.6875687 2.354862 -0.29630098 2.538264 0.83058536 4.1864552 -3.4634454 0.03409941 -0.7607649 1.7239786 0.31842816 -3.459909 -5.6316795 -2.2518759 -2.3257422 -0.31497523 -0.8545064 -1.7515496 -1.3005211 5.504746 -1.8283911 2.8539498 0.50836253 2.7311685 2.4071734 0.21880649 -0.7727183 -0.106383815 -0.7032221 -4.5322714 6.6601825 -0.22583441 2.5461185 -3.8703923 -1.1144542
buttermilk 0.138368 2.6386192 0.37220514 3.4080384 -0.21474333 -1.8268149 2.1873097 -1.2190629 -2.440867 1.1959893 -0.73425865 2.348539 1.9535975 0.6904281 2.1165593 1.2943134 -0.14875089 -1.1218696 0.07736301 2.4503803 -1.9946604 3.2024982 -0.78949434 0.5635558 -1.858496 -0.62201756 3.1657393 -1.2262555 0.10709188 -1.3183901 -0.053262237 -2.5378942 0.11314369 -1.7535363 -1.2215517 0.76146823 -2.594237 -3.5703928 0.24255879 -1.6445656 -3.3046675 3.7974186 1.5028023 2.8668072 -4.4143977 -1.0191629 0.88103116 2.350405 1.6037264 0.5650947
tortilla 0.90846497 3.2416065 -3.1366963 -5.5975666 6.2476444 -6.579114 -0.88184685 0.8994804 -1.2830415 2.7202473 0.1656041 1.2808886 -5.0956373 5.7404833 -0.064058326 0.7868595 -6.433614 4.181036 -2.863396 -6.5524693 2.2054281 1.4803548 -1.1430374 2.618632 -3.235925 -2.4971955 1.8761901 1.0251716 2.2918775 -4.189575 1.0915759 2.5509517 -4.874742 -0.81045336 0.24649744 -4.553855 -0.12840009 3.1504 4.147606 1.1048849 5.6243477 2.3504193 -3.6202326 0.26222345 -2.6794727 -1.2638761 3.613652 -1.1578945 -5.826058 2.5040727
cake 0.22297849 -1.250252 -1.7899545 -0.5871185 -1.4028243 -1.6844453 0.082449295 3.6551867 -2.4650548 -3.1281936 2.5211778 2.0274773 2.1743002 -1.3393055 0.29842 2.0464458 -1.8658098 1.7319264 -1.2555189 -1.3193336 -2.298951 -0.6825748 -1.5793221 -0.13938755 0.20441431 -4.9277616 -2.0605307 -3.9630876 -3.8477838 1.6958017 3.5989943 -1.6890633 -3.349063 -2.624922 -2.2348642 -2.6976056 -4.888906 -0.7450602 3.175854 1.6044469 -4.25112 -0.7369083 -2.164815 1.6354096 4.39742 -0.91653013 4.4620934 1.0526402 -1.456571 0.7609682
raisin -1.1313138 -3.179817 0.8398382 -0.11705853 -3.3700378 0.87929606 1.9178126 2.682351 -2.8487384 -0.7067026 3.5639102 1.9219363 1.2797863 1.1882544 -2.5885284 1.4529654 0.5529325 0.5220463 0.34950578 2.1818588 -2.104037 0.9242109 1.8308232 -1.9887735 0.5894641 -1.0426923 -1.3519504 -0.038983595 -2.3067734 1.4029865 -0.058066886 1.1890182 -0.46802056 1.8753529 -1.780288 -0.46782953 2.3820956 -4.3777895 -2.2422252 -1.4949853 3.3196127 -0.4620267 3.0051808 -3.2108588 3.0613844 5.604257 -1.5530555 0.9445135 2.8951578 -0.5791571
mint -2.9000375 0.24404867 4.643562 0.21275772 -0.27768022 -0.3672274 -0.345021 -1.7106019 -3.7865388 -1.0505664 -2.7776132 1.1916506 1.6308501 -0.89373016 0.930749 -0.92423177 2.3563964 -1.3824925 0.73296666 -1.4335088 0.893101 2.6276772 -3.2879715 -1.0924044 0.80369306 0.023638794 1.0323522 -2.2761168 0.6060267 -0.50373733 2.8385737 1.6814691 -0.048941847 1.2271701 2.4183316 -1.9646856 4.965255 4.656353 -0.9706451 3.6162806 2.457508 -2.9461071 0.43574336 -0.6724544 2.792492 2.1736772 0.7903102 0.18493187 -1.2071918 -0.7729273
fat -2.4153478 1.493192 -0.570993 -2.1007814 -0.53752756 -0.76882416 -0.79544085 -2.0597398 -0.12962483 0.33734202 0.06030611 -1.5945461 -0.34853336 1.5069392 -0.47605473 -0.9235265 -1.1384925 -0.7698256 -0.76222897 -0.31056082 0.939974 0.3444932 -0.23631422 -0.5590958 1.1474284 0.108946815 0.73513794 0.76533645 -0.86836696 1.5477751 -0.03917182 -1.3064967 0.65353614 -0.75878996 1.7343647 0.6076363 0.04303634 -0.37515432 -0.90975815 0.37001583 1.0233903 0.44799855 1.302165 2.203608 1.3102385 -0.39707837 1.2305583 -0.17653106 -0.98599744 -0.32714528
turkey 1.3048558 -2.468242 -0.8767655 0.7812325 -1.7727984 -0.4629386 2.9695597 -1.1813061 -0.0087660225 1.470276 0.6599079 -4.2696166 -1.9912971 4.4612255 -2.7873218 0.97478276 0.16225934 0.62541 1.6406366 -1.3362565 1.0040048 0.49145907 1.8077009 0.79246783 -2.0512624 1.773418 1.8687745 0.61543983 3.171868 -2.6357508 -2.1195529 1.9827995 0.554111 2.6306207 -1.8761764 1.9700847 -0.48104778 0.11520802 -0.7775073 -1.3399911 3.9088802 2.264691 1.8702173 0.27316058 1.070368 0.20607601 1.3405696 -0.54770154 2.1172428 0.14659233
cider -5.799911 0.4107756 -2.7948284 -1.6868428 -1.8340648 3.7199833 0.035724584 -0.23043159 1.6593479 2.7736344 -0.59550744 2.7228298 2.193463 0.29488304 -0.33187282 0.7064455 3.1694498 -1.6478112 4.5035114 -1.4189342 -2.8260846 -1.5737888 1.1180342 -2.1134465 -2.937511 0.09306491 2.887713 5.2623897 1.1343775 0.53021324 1.6894596 -3.2003052 -3.8527303 -1.6501284 -2.3621104 2.2122157 2.0293791 2.8761802 4.314421 -1.4221296 3.7076266 1.9594911 0.3935926 -0.8129634 -4.111482 5.6884236 0.033433836 2.9073973 -2.7939112 0.69120127
cracker -0.3224438 3.1320622 1.5883598 -4.283699 0.1590051 -0.12454415 -1.7568415 -2.6195793 -1.047484 1.5500968 1.9042035 -0.009837334 -1.1095946 -0.40300864 -0.2428235 0.2324934 0.07144227 0.9033388 -0.9399015 0.32105905 -1.4109111 1.1095622 -1.5548109 0.35553727 1.0902274 -2.5570295 -2.6939645 -2.3792415 -0.009866807 1.86967 4.250553 -0.38263252 -2.1069796 0.120171726 -0.8524683 2.5169108 -3.8729656 -1.51431 0.33057374 -0.53472596 0.47519225 -1.547655 -0.5897924 3.1271858 1.12827 -3.6936975 3.1410644 -1.5621004 -1.2505038 -1.5782188
zucchini 4.6966214 -3.1748917 0.660316 3.394303 -1.0481757 -1.2606897 2.6034355 -2.346786 -0.7980235 1.083945 3.3650994 2.7276378 1.8166678 1.7839272 -1.0128299 -1.193626 -1.2106597 2.3515296 -2.3610744 -0.8544498 -2.085358 -1.6026418 2.300883 3.9773185 0.7761033 2.0853367 -0.45722392 -2.606453 0.94152534 -4.044666 -1.2807144 1.0319866 -0.62411904 -1.9529399 3.8428495 -0.31647232 3.262071 0.6291322 -1.373538 1.28789 4.3555584 0.53053516 1.5043025 1.2734584 0.7795711 -1.9934676 0.049588725 -0.43544492 0.59914947 1.2184503
cucumber -3.0262246 1.1896884 4.9482045 -2.099802 3.9401753 1.4439402 -1.438076 -1.4190327 -2.3454237 2.662011 0.14315565 -0.43430045 0.6869365 2.696719 -2.0705035 -2.151963 4.2328444 0.1479677 4.8619223 -0.52961886 -1.054228 -0.25271827 2.4475846 -0.6760268 -2.9319882 2.8348784 -1.1783695 -0.38400915 -2.9898038 0.4196321 -1.0418007 2.6032572 1.3138214 -2.1961515 2.3603747 -3.4297588 6.1458883 5.677194 -0.32718903 -0.8431518 0.32779294 -3.2724214 -2.1624143 -0.088985234 -2.3420348 -2.9073792 4.7369814 -1.4371952 0.10484191 2.6779532
oat 0.2502478 1.3198245 -4.0929785 1.8734294 -1.1429294 -5.285818 3.8611703 3.8510687 -1.0113288 -0.10667965 -0.7382911 5.2937956 0.17485929 0.96827847 2.069898 0.7904498 0.9545231 0.46348375 -0.2436326 2.5362737 -4.5684285 5.5412908 1.6052382 -0.5870355 -1.7183113 -6.2158985 -1.2544446 -3.2264626 -1.7430375 1.6765343 0.4664549 -1.4370717 -2.4071224 1.9914616 -2.0534155 0.113832206 2.3116238 -3.858963 2.5040586 -3.6424034 1.8171368 1.3277968 2.3570397 -1.5631806 -0.21936817 1.3065207 -0.95602775 -2.7064047 -0.6138428 0.429335
steak -0.103369385 -2.9174962 -0.16287932 2.0072436 2.2974377 2.9936156 -0.9515973 2.1255927 -2.5002503 -3.0670702 1.1421764 -4.863943 1.2931421 5.4705677 -3.0544877 -0.13045697 1.0487149 -0.27337798 2.486103 -5.601216 1.1825677 -4.0135856 -0.2908722 0.71018076 1.1585174 -0.8683536 -1.1906472 0.9128502 2.1089852 -2.810927 -0.02791391 3.2770398 -1.6770098 -0.185447 -3.501098 1.1991836 -0.8092281 5.2861137 -0.23730053 0.5482151 1.3000908 -0.19638954 2.2433538 -4.049852 -3.837289 -2.963682 -1.9752982 -5.054568 -2.8968995 -3.0909061
chive -0.061529815 3.509105 -0.3586237 -1.1731673 -0.49044007 -0.1593115 -1.4695401 -1.3221098 0.53803784 0.9531326 0.68910617 -0.73538536 -0.3098086 -1.0532768 1.0726153 0.87471724 4.0401626 -1.9543866 0.2690483 -1.705025 0.900194 -1.7772461 -0.46236745 0.2977386 0.30136457 1.6140953 -0.5100741 0.50294703 3.141001 3.2769704 -1.4231606 0.81846523 1.6131201 -2.1669946 2.507511 -1.8341131 -0.6730436 1.4247241 -2.8009043 1.9915377 -2.5360975 -0.65012 -0.8566152 1.1655759 -1.5297875 -1.9527935 2.447159 2.2651958 -1.4395446 -0.8858009
jar -0.7558554 2.1115742 0.203711 -2.209613 0.24119343 1.4291009 0.23204072 -3.4772332 -1.5561416 -1.150598 0.33048552 -2.6658235 0.61991566 1.1787711 -2.0182505 -2.0913122 -2.6485274 1.36581 -2.1903915 0.7177271 -1.0470154 0.7307395 -0.733068 -1.4571477 0.7784463 3.6838093 -0.95439976 -0.18560073 0.1907585 -0.426464 3.1684341 -0.99491566 3.3025167 1.0182881 -3.8233423 1.1517615 -0.5218489 0.5185591 1.8168176 -0.7142182 1.7878209 -2.3041613 -2.4273415 1.1171341 1.267917 0.4083407 2.2272773 0.29148042 0.6340939 -0.40883896
ham 1.858585 -0.61141354 0.2760648 -1.9084177 -3.7261314 0.014834749 -1.1763215 -3.372424 2.436432 2.943559 -1.3335896 -1.0572046 -1.2899982 -1.9081295 -0.085174344 1.1141847 -1.325502 -0.769218 0.43072507 0.8434123 2.824619 -0.118836686 -0.47468317 -0.8549404 -1.6965754 2.1833518 2.0276642 0.3177613 4.9613605 3.9604487 -2.1259391 1.7276766 1.1899259 1.5477942 -1.3011891 2.5377393 -1.0885642 1.1375679 -0.10140794 0.8267649 0.50717634 0.69266033 0.04331474 3.6355765 1.475039 1.0483397 1.1456451 4.2755523 1.9966393 1.6786641
dill -4.007861 4.2680984 -0.78756994 -0.5098026 -3.3287423 1.2762027 -4.25858 -2.3424954 2.6628933 2.0066078 1.3032095 -1.8950413 -0.3167284 0.30257198 -0.5474495 3.0637183 2.106484 -0.8534347 -0.47330016 -1.8598665 -0.22164954 -2.1669233 -1.9513509 -1.7303963 -0.40752137 0.2986889 -1.1446847 -1.7140886 2.2155404 1.7613634 -2.701696 0.22755271 2.4959161 -0.6949795 -1.019371 -5.83365 1.0569139 2.3084104 -5.3020134 2.5047996 -0.7274158 -0.9727979 -0.15272447 -0.5796832 -2.870397 -1.6611705 3.6291971 0.985164 1.4669007 -2.9214938
broccoli 0.99564296 1.4380019 -0.7699237 0.6714733 -0.958866 -0.7025507 0.36251938 -0.74506164 2.128643 0.7735818 5.658411 -0.64144635 -0.26234803 1.848976 -1.0635785 -3.4273164 1.8495162 -1.1733752 0.31238842 1.5587492 -1.6574394 -1.7427232 -1.5368536 0.091009445 0.060558744 0.98936313 -2.6597931 1.5654012 0.7820303 4.739116 -3.7615976 -1.766441 4.095653 0.9884369 5.0325165 -0.19377956 -2.397475 0.3958588 3.6074283 0.8252995 1.4243593 -4.2365537 -0.2738309 -1.0006361 -0.7522029 -3.414723 2.9071646 0.25902653 2.0301464 3.0855737
breadcrumb 0.057993174 2.0228434 -4.7126637 -1.0041221 -0.3423148 -1.2248981 -5.6781106 -1.572438 0.90442514 0.06338718 1.1693941 0.15746398 -0.8467446 0.21110997 0.8918408 0.9760184 1.1137818 0.8364643 -2.3019497 0.102939084 0.90757245 -0.83697665 -0.68276036 0.38505977 0.23867005 1.107665 -4.401214 -0.0822117 1.5316315 2.5694237 0.6161663 -0.5622285 0.9173343 2.1424139 0.43200174 0.20148107 -3.0288677 -2.2609763 -0.44911435 0.7379635 -0.6408498 -1.3731625 2.070752 1.865985 -2.9073517 1.7528956 2.4101562 -1.7708246 -0.39303225 0.17653711
fillet 1.201977 -4.4846888 0.08709858 1.438395 -0.7652753 1.0558567 -4.822193 0.90310144 -0.96194017 -1.9680581 -0.6368327 1.0973687 5.0343513 1.7713457 -2.3660233 -0.49828783 4.9630103 -2.0563982 -1.2251915 -1.6844616 2.92601 -0.85738826 -1.1686035 3.3902504 1.764744 -3.6650817 2.101791 -1.5390443 2.384422 3.4821308 3.8143988 4.9142103 3.6429605 -4.7234597 0.1409355 -3.6498754 0.09380272 6.7490864 1.303231 3.2968888 -1.0250793 -3.1408446 -3.0115974 -0.34477475 -7.3874784 -1.698734 0.5438628 -1.9351587 -2.9938133 -0.9058236
cabbage -4.234055 -0.93665236 1.2815299 -0.9164272 3.439095 1.6328695 1.4920903 0.32339194 3.943197 -0.44459167 2.3089862 -1.1672269 0.2404314 0.21279083 -1.3840399 -2.6315205 0.30097896 -2.70584 4.0638824 1.1375933 0.11814231 -5.5223207 -0.8748902 -1.2934684 -1.1126895 -0.23728026 -1.8519433 0.5059942 -0.75406754 3.5523148 -2.96534 -0.4211599 3.0628126 1.2011746 0.9009393 1.3892703 1.6504322 3.245246 0.40504563 -2.2897043 0.056393772 -2.154833 0.5355792 -1.3065767 -2.3780718 -1.4029106 4.076127 1.5730095 0.8724573 1.131319
shortening 1.4598953 -3.11647 -1.3391516 -0.7068691 -1.6193403 -1.0233905 0.44870606 2.0158734 -1.4517124 -2.5664248 0.55950975 3.5900466 0.21655385 -1.3122227 3.2126527 2.5300171 -3.479956 -0.0941949 -3.5473616 1.8901072 -2.547168 -0.2465407 0.15653971 3.5726833 -2.074232 1.4882865 -0.11973675 -1.1722463 -3.4391818 2.383356 -1.1064898 -1.9752986 -2.9611251 -1.6694107 -3.0137286 2.368035 -0.4230876 -4.84554 -1.0220734 -0.6529298 -0.14957586 2.7036448 -3.6554704 -2.2967708 -1.0319629 -0.10907946 -2.798587 -2.3239405 -0.050568562 -1.2122316
fish 0.17356347 5.0387154 3.8221176 0.046466313 5.813614 -0.9756574 -0.4571834 -2.7999802 0.5271131 -4.3297877 5.720128 -3.2737968 -1.2419511 -1.5781105 0.66283375 -4.8097167 -3.519131 -1.7673002 5.731509 -1.636229 2.6488917 -1.661644 -3.7143066 -2.104999 1.2396598 0.48063087 1.6281893 -3.8361666 1.605406 -1.2450542 2.6355746 1.3793988 -2.017891 -1.0556374 5.593672 -1.3453234 2.1509955 0.4308903 -3.4635108 0.83312935 -4.752544 -2.666244 -1.0257626 -3.210893 -4.954097 -2.8938165 -1.4150403 0.31074312 -0.68925905 -2.3460267
avocado -2.6028664 2.3274817 1.3274965 -4.311979 3.7838721 -0.2592424 -0.43946585 0.47368962 -2.2176812 3.1454306 0.71288615 0.11742611 -1.3398055 1.2149129 2.059769 -4.199845 1.177557 -1.1802976 -0.18073869 -0.39155415 0.68006223 2.3292344 -2.9142442 -2.0859847 0.19686045 0.7714346 0.6088989 2.4239357 -2.6659107 -2.3623643 -1.8769778 2.1649754 -0.7789351 -1.0705358 -0.5492971 -5.1687164 1.7630863 5.4434094 0.9700851 3.3466883 -1.4866278 -2.3503022 -1.8977063 2.5712879 -3.2704813 -2.565324 5.267715 5.4581676 -1.5375698 -1.5344291
cooking spray 0.8238827 0.50224644 -0.47957736 -0.87872624 -0.029628038 0.22227418 -0.684675 -0.5572729 -1.0560372 -0.3150037 -0.048974518 -0.36171484 -1.1488531 0.9876626 1.8429793 -1.3227327 -0.011351208 -0.5815177 0.033486772 0.10453228 -0.89695317 1.0822557 -1.4099625 0.696954 1.3183144 1.0790542 0.2820088 0.3352998 -2.2398407 -0.65716684 0.6232178 -0.76213175 1.66385 -0.87701917 0.0006239195 0.5802467 -0.19539936 -0.961769 0.13165617 0.26425743 0.21786247 0.49143386 1.5028119 2.517236 -0.96952975 0.37548578 -0.061519302 0.4470041 0.041678768 -0.7589792
rib -0.115580134 -1.3303434 0.8295496 0.57943255 0.98426455 -0.14037888 -0.46187514 -1.9588398 2.7953475 1.5679337 -2.2957633 -0.6329288 0.42223552 2.1528559 -2.0401626 -1.4706241 2.2079968 -2.3043718 -2.283576 -1.1924002 -0.7169927 -3.7136173 0.8081639 0.09743624 -3.4936564 1.0305065 0.172736 -0.5326206 2.6088345 -1.041259 0.5171811 -1.1567205 -1.8461021 4.077505 0.45180145 2.8944094 3.185867 1.2152553 -1.9334016 -2.3151298 0.21671617 1.2350463 -1.1109533 -1.3630241 -0.039953727 2.5916848 1.3715985 -1.8798791 0.85474855 -2.698146
noodle -1.4632809 1.4655293 -2.0597503 -0.50374055 -0.40254793 -1.044201 -1.6799642 -1.1747047 3.8203964 -2.964216 3.9724684 -1.6644822 -2.1967707 0.25123566 2.129908 -2.7782955 -1.9629054 0.30163687 1.2706642 -1.6495285 0.24012294 -1.5847601 -1.7741373 2.462053 0.07059526 -0.18641429 -3.944319 -0.6925537 3.283146 1.46449 1.081302 3.3562121 -1.98582 4.9484577 2.306823 0.53834337 -0.3920373 2.742367 3.0008824 -0.4874879 -1.4376011 -2.2886794 -2.6790853 -2.7058105 0.97883826 -1.5524788 2.2317817 -2.643173 -0.7046357 4.7233253
ketchup -1.6084567 -3.6704426 0.72422457 -0.729738 -1.0475132 2.1474564 -0.20087904 -1.0942746 -2.9902437 -0.544849 -0.17525852 -2.5532427 -1.515384 -2.1161005 2.120157 -1.2525163 -3.2702742 0.6621683 -0.028030861 2.5453248 3.9607048 -2.5951467 -2.0146875 -1.055718 -1.061612 0.80245996 0.46952924 4.108808 2.9464192 1.2235844 -3.3514805 -3.4818435 -1.1477184 0.53849965 -4.783327 2.946206 -0.6515949 3.6277895 2.573699 -1.0030198 1.500834 -2.4788544 1.8649018 0.04641065 -5.7757277 1.2389344 0.15264623 -0.40719053 2.665196 0.6057879
pumpkin -1.8450904 -5.103119 -1.8468152 -1.130508 -1.3903449 -3.318548 -3.267399 5.7368536 -2.4132237 4.6539884 2.0618036 3.5534453 5.3284645 1.7329599 2.4578922 2.3296206 1.2054217 -0.16834821 5.7034116 0.93280554 -0.7455939 2.8537867 7.2875338 3.942874 -2.304366 -6.17851 -3.2572408 -0.097438276 -1.8769927 -5.2024894 2.2955031 -2.12685 -1.1345404 0.27208355 8.497374 2.4101658 0.40710258 -1.8825685 -1.6577482 1.6412822 -1.4113584 2.2388368 -0.2191439 0.5786828 1.8711729 -0.55101806 -5.9361334 -1.9924 4.631806 0.8757543
curry -2.1054525 3.0679464 0.19780323 -0.62354934 -0.12780641 -2.153443 1.7402258 -0.44140086 3.7282164 0.16749959 2.3845372 0.37597364 -2.9280376 2.2731462 -4.150932 -3.6511545 3.2404866 -2.2754 2.3905537 1.999737 2.863973 -0.009387405 -2.5666013 -1.1595618 2.0438788 -2.8342261 -1.0995958 -3.6751978 -0.59410006 4.7534304 0.91051036 -1.1835811 -2.1853 1.0653657 5.3960023 -0.76158303 0.63603187 2.8697336 5.139409 0.9944526 1.7318237 -1.7906948 -1.836815 -0.2357004 -1.5302546 5.2241626 0.02861291 -1.099964 1.0561491 -1.1720477
cranberry -1.037935 -0.25864705 3.0812595 -0.27413604 -1.7069793 -0.81398106 -2.449296 3.1720147 0.5349799 2.349899 1.8624742 1.539523 1.325501 0.115001805 0.95220333 -0.69648474 1.7753938 0.58896786 0.8712583 -0.2754306 -4.23706 2.2361379 3.203149 -4.5117016 0.88929236 -1.212863 3.6186364 1.8598608 -2.1594868 2.2274199 0.28606495 -0.2944285 1.1908966 2.440939 0.46772012 -0.9906778 -1.5677346 -1.8245314 -0.4838351 -1.8720018 0.57497895 -0.8763049 0.5916921 -0.9831579 1.3710725 1.194743 -0.030546969 0.5145371 1.9202607 -3.3159008
salsa -0.12698911 -2.3312788 -2.0869188 -5.587249 0.39599943 -1.4740125 2.0907257 -4.2369437 0.7424238 4.312931 -1.9497936 -1.1211411 -3.2881906 5.0325823 -0.30005464 0.39994296 -4.494354 1.6356965 0.33726355 -3.290644 1.7424743 2.0754426 -3.135021 1.4078604 -4.242135 -0.14264421 -1.635448 0.3165906 -1.617742 -3.699367 -2.5181367 3.239774 -0.53753275 0.03819607 0.8540033 -2.4728782 -0.8898878 1.5771031 1.8052409 3.9452186 -0.99289936 -0.35382444 1.7478311 0.07854101 -2.7721207 -3.8910542 -1.3255 2.7869663 -1.2204096 -0.9124142
meat -0.98408234 -1.6243011 0.15253524 -1.0208154 -0.5516687 0.47226915 1.033578 -2.719445 0.4991448 -0.9185582 -1.1384724 -3.417893 -0.9883713 0.32072973 -2.0180583 0.28787026 -1.7767354 -1.2417861 -2.5634253 1.7240196 2.989709 -1.3963281 1.8232265 0.5426917 -1.600995 1.5331341 -0.10395283 -2.110681 1.9368682 1.2209607 -0.32015568 1.3420818 -0.31081992 1.0621359 3.0668676 0.78852445 1.2593293 0.5364247 -0.7226889 0.087893695 -1.9236475 0.3597067 0.52323663 -0.30820397 -1.4522558 0.84924877 1.1109338 -0.38959816 -0.43323445 0.21925272
liquid -0.54617614 -1.295652 -0.86262614 -1.0551676 -2.1423488 1.3476896 0.12989591 -2.549526 0.56066936 0.42036676 -0.9584546 -0.89000523 -0.87806994 -0.24395497 -1.1677232 -0.8022744 -0.9273607 0.52517956 -1.1656274 2.2735486 -0.5957563 1.0675242 0.18308547 0.6374357 0.4894513 1.2968841 -0.16547567 -0.20545469 0.5376253 -0.994841 0.79575956 -0.5902838 -1.4127895 0.6922396 -2.1249802 -0.1113877 -0.06814351 1.4665233 0.45802116 -1.2246124 -0.18938208 0.39844364 -0.20375027 -0.5905999 -2.1288178 0.9861253 0.77989185 -0.78333867 -0.14028189 1.3204458
chile -2.1605735 0.45055357 0.62581193 -1.7252971 5.325233 2.2148252 -0.86403495 1.3707062 1.514874 0.5767613 -1.8190296 0.15126441 -1.6625075 -0.27205008 -1.1270409 -4.2903576 -1.4300926 -1.4098521 1.7764242 0.622002 4.3245087 0.51584077 -0.8253564 -0.5116093 0.34910765 -0.008246535 -1.3285805 0.40928093 -2.7360055 -0.8358063 1.4484211 1.9715226 1.237427 0.41199094 3.1695771 -1.6642302 0.95039517 3.2401683 1.6792097 1.291604 -1.4344656 0.9614266 -1.2974926 0.8657643 -4.001777 2.1697676 -0.3049752 2.6213107 -1.6150565 -2.957125
squash 0.6679409 0.38065866 -2.2322896 3.8260121 1.3760021 0.840311 1.0173749 -0.8386921 2.1124988 0.62554395 0.9018197 0.9952373 -0.8009316 2.9006584 -1.0351686 2.1459904 2.004036 1.1572313 2.511595 -1.0537673 -0.39147124 -0.5171028 0.25985834 0.28253865 2.4220731 -1.7372835 1.05463 0.48878962 1.6372633 -3.1674302 0.21876311 -1.7332801 4.5273585 3.1118302 2.2428079 2.070595 0.29509795 -0.50663227 0.9111616 1.9176978 5.687106 1.1125921 -0.31028628 -2.9630125 1.9824046 1.5632805 -1.1803378 0.5508984 3.8867977 -2.6981494
plum 0.605 -0.38778237 0.111749195 2.4271257 1.6754771 -1.7662046 0.7950211 -1.2304944 -2.0958266 0.8456406 -0.044501025 -0.29020038 0.16310428 -1.2270491 -2.2962575 0.07414957 0.2580242 0.3395257 -0.58114463 -0.2276103 1.6930151 0.46194825 1.1098684 0.53126115 -0.42959982 3.4918716 1.013607 0.914668 -0.48194376 -2.8321629 1.2831138 2.2306328 -0.22775626 0.71266705 0.8458085 0.025208673 2.00075 3.4038763 -0.45805293 1.6688454 2.8730645 -0.66815823 -0.24995524 0.958051 0.8598837 2.0586612 -0.8004815 -0.21133105 -0.46269497 -1.7777823
sage 2.5028372 -2.7416077 -0.87611216 4.362014 -2.576532 -1.0213745 0.20631883 -1.8090096 2.4688923 0.12955958 1.6068474 -0.26594797 0.37585685 1.159584 -0.47767815 0.68837506 2.3253975 0.4317603 -3.8925252 -0.8248743 -1.5799547 -3.7851524 2.5360906 -1.1961441 -2.6297684 1.0827109 1.5091232 0.94840866 2.7256444 0.5804124 -1.0806829 -1.0051137 1.1979339 1.5751213 2.432148 3.6834679 1.2105479 -4.0477843 -1.8960531 -2.2145889 0.9098126 1.1287038 0.8763613 1.9815849 1.6835194 1.905016 -0.4697269 -1.3432238 -0.37633651 -5.820866
raspberry -2.462007 -0.64641553 3.8903594 1.1116284 -0.24899225 -4.4361377 0.99771994 0.3724092 -2.4272516 1.8777537 -0.4633896 1.6595535 -2.0399895 -1.1870476 -0.26905152 3.5004332 0.44042557 -2.1469648 0.81766987 -2.0900424 -4.6955156 2.5013988 -2.4498928 0.20007151 0.1746221 2.8667524 3.3886802 2.3632548 -2.9315634 0.6726033 3.172903 1.2713068 0.32610095 -2.5893104 -1.4478391 -0.5200406 -2.0142062 2.0635786 0.64143753 -1.8210275 -0.53775954 -0.1115143 0.4496216 2.336752 5.250968 -0.70565647 -1.3370126 -1.7135037 -0.39955437 2.4704397
blueberry -1.212078 -0.46418282 0.58932483 -0.019375987 0.42014933 -2.402687 -1.7021955 2.860449 -5.3138723 3.10117 -0.022792667 2.4438746 -1.8485776 -0.8516654 1.2704629 2.0364125 -0.39050898 0.820966 2.0438309 0.07812736 -4.333573 3.3900921 -2.1963997 -3.0890665 2.1164217 -0.67463744 1.8175588 -1.8536035 -2.379693 4.5192385 -0.7223839 -4.6683755 2.3442647 -2.630263 -1.000948 -3.6837647 -1.2235984 -3.2739398 -0.8215736 0.54685134 -3.4435627 0.47525734 3.2357864 2.2254136 3.487744 -1.016066 0.7683382 -0.92576736 -2.0026608 0.82544494
coffee -0.74553335 1.6432111 2.1086848 -2.7975507 0.64831644 1.2454759 0.12354053 2.0767436 1.7148603 -0.4048648 -4.0875015 -0.18880595 0.92842746 -2.4755473 5.312475 1.1957256 -2.6003513 -1.2307084 0.8055295 1.6098734 -0.15475656 0.4261367 1.4578505 0.5785817 -1.6428862 -0.537517 -1.9561073 1.270271 -2.7527714 -3.8847978 1.0835536 -0.9774946 -2.8983855 -0.6321626 -1.0429226 0.77793205 -1.247373 -2.3432071 1.9759475 0.47589263 -2.9722908 2.402188 0.24696063 0.38841605 4.6918497 -0.78127515 -1.6199157 -0.68712 0.88652587 0.8594993
allspice -4.4343557 -1.3916223 1.0956688 -1.3070849 -2.4448597 0.37880352 -3.2841806 3.5277607 -0.07033982 -0.59354615 -2.021077 3.2414908 2.874079 -2.902948 0.11895617 -1.6787355 0.0048499755 -1.1486878 1.1776597 3.4087465 0.9551187 -1.0892233 0.9737961 -2.4589472 1.9022784 0.5418922 -0.6294335 0.6338545 -0.9519361 -0.87041867 -1.1147423 -3.2683113 -0.3189834 -0.84846354 3.0691087 1.2766309 -1.295211 -2.4211636 2.4572241 -0.14800347 -1.6346599 3.6263893 3.0547411 1.9936963 -3.2271717 4.5968366 -0.56508815 -1.0115334 0.46613723 -5.1082115
rum 1.2147328 -3.3633153 1.9491997 -0.9864171 0.50454205 -2.2935734 1.2373824 3.8048506 0.37227684 -3.6919007 -0.21821737 -0.15565175 -1.3764323 -3.8639994 -0.53469634 1.1473794 1.2687184 1.0357751 1.2859262 -0.24373573 -1.810265 2.7281685 -0.197225 0.8898587 2.2577677 0.025503911 -0.054227445 0.74623823 -2.311223 -0.1340101 1.4115354 -3.9769845 -5.377955 0.20235541 -0.28413567 -1.2973188 -3.4676018 -0.6552487 -0.841364 -0.18030857 -2.9792702 -0.5291807 -2.8530364 0.81680113 1.9150494 1.6072094 -4.7630134 -0.4344278 -0.055113573 -1.6341039
turmeric -3.4824235 0.28793684 3.2038164 2.6491392 -3.055319 -3.161092 1.5081233 -0.9801781 1.8900014 1.4328331 -0.6455443 1.3591707 -2.4726145 1.8609821 -0.9304903 0.08375684 2.4933631 1.6255816 2.420899 1.1683531 4.334773 -4.5414615 -1.3912866 0.3387737 1.3245082 -3.5129588 -2.6509993 -6.4081836 1.7821038 -3.7768495 -0.2826459 3.633176 -6.159876 -2.2655776 2.9886305 0.8053884 1.878117 3.750501 1.6618794 4.799443 5.004859 -0.93523955 -4.028666 -3.3914819 -0.5150117 5.3339834 -4.269905 -2.005295 3.1659844 0.77806985
pudding -1.3775824 3.1177561 -1.8061365 -0.05456728 0.44507363 -2.392768 2.2469513 3.802698 -3.689807 -0.2143101 0.17826477 0.5357811 0.7930005 -5.8363214 -1.9457287 -1.9781685 -3.0138736 -0.70319223 0.90144295 -0.021632487 -4.7595906 1.6459061 0.028178483 1.436839 4.7379923 -0.12346166 -0.5711647 -2.0316522 0.4233089 0.32715017 4.3255463 -1.9239357 -2.9120245 1.6674668 -4.326712 -0.6695475 -1.965398 -2.5024896 -1.1131301 3.9620368 1.5936123 -2.3534284 1.3974856 0.6277453 5.558335 -6.647304 -4.7921243 -3.3360417 4.655703 0.020396559
salmon 2.8908541 5.856942 4.2091236 1.7785116 0.3385305 0.11344766 2.70684 -3.4324276 -5.7967186 2.8725653 0.44255844 -3.0372977 -5.6400185 -2.0732791 -0.4416267 0.050789595 5.4654937 -2.278291 6.481969 -5.03045 -0.112567544 1.0753031 -0.045061223 0.312441 -1.4957219 1.6136171 1.4987996 -1.6939969 3.200935 -0.7547045 -2.924492 -0.8846553 -0.7673693 0.5673045 0.30800176 1.9100705 2.6797063 0.5911809 -3.2918763 3.2745512 1.3176241 -0.55424476 -2.1052485 -1.7090268 0.15798353 -0.37477207 0.7000967 0.05369272 1.8170654 3.530579
feta 2.9638026 1.3589684 0.47965434 0.84298646 -1.7661556 -2.0889034 -2.662618 -2.9457428 -1.7212782 3.2815623 -2.1506884 3.2901418 1.3422643 -1.1794511 0.37186083 1.222232 -0.08425176 2.9027274 2.430628 -1.7870111 -1.2082788 3.044297 0.8356196 -0.774941 3.2844632 6.482569 -0.5068106 -0.2152263 1.294321 -1.9291255 -3.663223 3.9426944 2.5727992 -1.8376027 3.170289 -2.9041514 -0.41130272 4.219221 0.67819685 4.512816 3.4859438 -1.9078424 3.0784135 2.0104206 -0.6632854 -1.3339456 2.5845823 0.30939734 0.45785207 -1.0965521
spaghetti 3.2192025 -2.3690999 -2.0816996 3.6486678 -0.6565161 1.3055297 -1.6008645 -3.1447666 1.4345438 -0.3724814 3.1305401 -0.783322 1.7188597 1.5068715 -1.2070181 1.0198764 -3.5547159 2.2438486 -2.1448064 0.49384794 1.4484246 0.1311573 0.28862333 2.178111 -1.720303 3.5379393 -3.974523 -1.1527631 1.346692 -2.8228447 -0.122242615 1.9507871 -3.0189948 1.6407739 3.2100067 2.1571114 1.1525958 -1.4542495 -0.53765804 2.2112277 2.2061765 -3.72333 2.3791866 0.15854003 0.60811853 -4.3292456 -0.015471028 -1.468863 -1.5396767 1.6487919
roll -1.5980924 2.9672482 -1.0847113 -0.67883116 0.32200587 -1.7784679 -2.5289063 -0.3295945 -1.815449 -0.6958759 -0.19119029 -2.168872 -1.8629279 1.8490169 -0.8320061 1.4983784 -2.318763 4.001023 0.08062612 -2.108702 0.6608996 0.1748711 2.6328385 2.289161 -2.3898807 -0.21018185 0.6671755 -0.4587035 1.5207902 1.1160129 2.1848588 0.5472072 -2.729191 0.3222252 -2.7405138 2.5085132 0.34136575 1.9018234 -0.2509605 -2.2489207 0.5457768 -2.2688613 0.85865027 2.3749025 -0.30741027 0.06501335 2.7873046 -1.4401245 -1.7932454 -0.3506828
peach -0.3545303 -3.3396747 3.359571 -0.6231428 1.847517 -2.9888163 -0.44847623 1.730868 -3.0585535 2.0880632 0.6949456 -0.3478306 -1.7988538 -0.9688835 -0.58703744 1.0778476 0.6301504 0.44511446 0.87406 0.20581286 -1.6725202 3.4484346 2.1560407 -1.3481729 0.21473588 2.3631577 3.0980804 -0.10385654 -0.06513835 1.0583892 1.0304252 -2.031469 -0.32129183 -1.8156153 -0.93698424 -1.2520028 -1.8384318 -1.5916235 -0.057652615 -1.7884893 -0.8453376 -1.124208 1.8993384 1.5557685 2.8994136 1.5215418 -1.8997808 -1.2932625 -1.9645014 0.17492686
hot sauce 0.29901117 0.55014956 -1.6684163 -3.0858967 1.8235548 2.208574 0.20585954 -1.5203488 -0.7167097 2.6486037 -0.6745747 -1.6476136 -4.16109 0.35217103 -0.22593133 -0.34451628 -0.7738202 -1.3484608 0.72303075 0.08891578 3.3604825 0.25880882 0.42644855 -1.5174667 -0.43909445 -0.10479346 0.8057677 1.9064252 2.5837088 -0.34285432 0.14407718 1.7276968 -1.4250911 1.0017731 -1.7685567 -1.7606603 0.64903116 1.2929083 -0.9353348 0.21391839 -2.243209 -1.308009 -1.1070529 -0.15724207 -5.7094975 0.39001763 1.3791035 0.80075073 1.4900191 -2.399347
gelatin -2.6146753 -1.5510459 2.3360593 -2.8282402 1.1632631 -0.89661556 -1.9814845 2.2894576 0.16970217 -1.8389015 -2.3770263 -0.26877955 0.55570865 -2.0133948 -1.4513291 -0.7575206 -0.50426346 -0.87758994 -0.05709312 0.98742604 -3.9888048 3.227084 -2.9844844 1.253145 2.64369 -0.09715393 2.0930402 -1.0461372 1.743256 4.171991 -0.12460182 -3.1804328 -0.49537936 -1.307508 -1.6534836 -3.595451 -1.724154 0.33660027 -0.25635645 1.1315695 -1.3363448 -1.2817281 -3.0465288 -1.2964933 4.1984844 -4.091735 1.4821068 -0.65766513 1.7840676 0.2806221
cornmeal 0.19644235 -1.1623138 -5.902147 -0.52589804 3.6344373 -3.6299665 -1.0822299 -1.8121272 -0.73007065 1.6259565 0.11404893 1.6434044 -0.9872481 -0.29510525 2.1194892 3.1229317 -1.6105727 1.5036321 -1.0497556 -0.516083 4.102639 -0.046936728 0.54155195 1.5265932 -0.8213145 0.13049191 -0.28323853 0.4793207 -1.9030236 0.42170912 -0.8385593 1.3916854 2.8149993 -2.7177722 -2.796283 -2.385786 0.7677786 -3.3626559 -0.9634147 -2.0477684 -1.7862676 2.3162954 -0.58727354 1.5315989 -2.3197308 1.0054369 1.5124619 2.89975 -0.043117005 -1.2369707
macaroni 0.2396424 1.2441344 -2.3073688 0.8046177 -0.63546354 1.910278 -2.619584 -2.1658041 4.903267 1.2648139 2.0894744 -0.4912202 0.7376992 2.1714718 -1.9920906 3.8484309 -2.5486133 -2.5392187 -1.2054393 4.093129 3.0025575 0.21392259 0.6786269 0.93703675 0.23059952 2.048855 -2.9114408 -0.2554074 4.081287 -0.56657755 -3.476307 -0.8946332 0.09382655 -1.4132869 -1.3220433 0.66655165 -2.5051122 0.02697937 -0.12457542 2.5434437 3.6926754 -3.1750205 0.83498454 1.39345 -1.2803104 -2.552012 1.424684 -1.6805366 0.5543519 1.2295566
bouillon 0.74557835 -1.4204143 -2.7386637 -2.5239813 0.053156193 0.0828406 0.29430273 -1.506179 6.0079274 1.0241935 0.27046272 -1.6704631 2.1736715 -0.0014949233 0.9555884 -1.9848732 -1.3772669 -1.963 -2.2567303 3.2973804 2.1178062 -2.6134317 -3.1006324 -3.5192428 -0.3467204 1.5754323 -2.5838325 -1.6085756 1.8738153 0.05601228 -1.4351554 -1.3595678 2.0588036 0.5940831 0.80050004 2.6423633 0.48897594 -2.4920084 2.6864042 2.360345 -0.15016204 2.2202308 0.41717 -2.477614 -1.5240458 -1.6351734 0.8483159 -3.2435617 -2.7080667 0.85279447
apricot -2.318393 -0.33671272 2.6877108 0.26457193 -1.051722 -2.7528698 -1.0556544 2.5721035 0.10484936 1.4601847 0.7692704 -1.7427229 0.27687225 -1.2187765 -0.49889982 -2.4621663 2.270055 -2.5382135 1.3777124 0.8666898 -2.250045 2.4560244 -1.3351947 -3.9158149 0.6687607 3.0516593 0.37844554 4.291727 -4.211962 1.8409615 1.6789988 1.1193912 1.6081609 1.3495003 0.33332404 -0.9622114 -2.0477755 -2.0654192 4.8227763 -3.94836 -0.8875675 -0.717638 0.42639452 3.7395945 1.7285663 4.041582 -1.8074571 -1.7338095 1.0552504 -0.2434862
leek 1.9543793 0.61728805 -0.39452785 0.9007092 -0.556946 -0.40888152 0.1323298 -0.20485342 5.8369446 -1.5787457 0.19580783 -1.0697144 1.2663655 -0.72516924 0.45285538 1.248696 3.1219847 -2.5568388 0.8685415 -2.7225337 3.4585292 -4.2639303 0.9384944 -0.064723104 1.5323851 1.5934845 -0.64070606 -1.2927567 2.4518347 2.667172 -1.9982171 -0.47814086 0.93176913 -0.75575185 6.661779 1.4913546 2.1201196 -0.34332278 -1.7930593 1.4961736 -0.9496637 0.81312096 -1.655126 0.1341656 1.077488 -0.98584986 1.8926206 0.031128876 -0.027122661 -0.54197264
peppercorn -4.718562 -1.4368361 2.496358 2.2030172 0.018037427 -1.2325459 -1.0459454 -0.23748457 0.24264562 -0.89192504 -1.9277076 -0.019859772 0.26521495 -0.8857033 -0.53769505 0.67554855 2.514489 1.421308 0.8756134 -2.1022522 4.323669 -3.5163045 1.6056194 -1.9804573 -1.1556157 0.97100824 0.30446446 -0.9675527 3.067119 0.65516144 -0.60925335 1.4871438 -1.5640836 0.5404121 2.7671943 3.0352788 1.6770917 3.3879266 -1.6777564 0.92580175 -1.4718249 1.9897479 -1.9437553 -2.6635528 -0.24621144 3.3847144 -1.182367 -1.4910932 -3.0712943 -2.774459
fennel -3.170879 0.7287049 -0.88221526 3.9762032 -1.1456943 -2.2174299 -2.2207763 1.597352 0.28067774 -0.24245425 -1.6670418 2.447381 0.7673517 -0.700582 -3.076444 1.1412458 3.2817366 0.6364775 1.5608381 -0.26001424 -0.6676665 -3.7496328 1.0194219 -2.1499941 -1.9248271 3.051989 -0.70381844 -0.7874003 -0.35395867 -1.5174618 1.3176806 1.6121533 2.68859 3.7302148 6.010106 0.29227787 2.4228635 1.5823284 -2.0985894 1.1516932 -1.2768608 -0.86017746 -2.0826497 0.76966536 -3.2567883 3.68381 0.42329973 0.48131472 -0.4779059 -2.1869729
cool whip -3.2619 0.12127055 2.558283 -2.6329517 2.2235208 1.4221278 -0.9369695 1.6646848 0.3400981 -2.5301166 -0.18572883 0.31823918 -1.421317 -2.0214646 -6.467093 0.9494964 -2.7803266 2.1806502 1.5625644 -1.7096066 -7.5012546 5.285602 -1.5306791 0.710927 2.2152956 -1.4900563 -2.91264 -0.67331964 -1.8863888 3.629991 1.9101101 1.0201054 0.7407071 -1.3605081 -0.86218745 1.8257248 -2.1535523 -1.944008 -0.7212538 1.6843868 -1.4324497 2.8852377 -0.54625857 2.8767955 4.9514003 -4.515108 0.6727649 -2.8600667 0.90514106 0.5167846
philadelphia -2.9103034 3.0244966 -0.5336614 -2.752522 0.45993683 -2.0728738 -0.16750498 -1.1343312 -0.9229948 -0.19024493 -0.3213757 -2.4518192 0.24824335 1.4598607 -1.5112134 0.2468883 1.0229656 3.0394044 1.253184 0.12513322 -1.3375379 1.7942343 -0.88276005 0.6980762 2.6558068 0.2831039 1.7015132 -0.4737422 1.3164742 0.6473085 2.1735327 1.907834 1.2138708 -0.3684493 -0.9502496 2.0134532 -0.1972246 -0.4045085 0.8001033 3.94877 0.4253913 -0.45952955 -0.23054549 2.4477456 4.5377617 -6.127953 0.7601105 -0.9096639 1.9290137 0.42108133
fruit -0.86415523 -1.9854529 1.9495051 -1.9502313 -2.0876896 -1.792243 -1.1218479 1.2253323 -1.1996627 -0.31251946 -0.62870824 0.62778693 -1.2674685 -1.0234337 -0.7572823 -1.0306386 0.9063032 1.0852538 2.2618322 0.71291375 -2.868648 5.560881 0.48006582 -2.1391408 -1.2095982 -0.123988055 0.8441175 -2.6172996 -3.2249084 2.6107779 2.980498 -0.7911791 0.5388324 0.8238766 -1.5479745 -3.3307655 -3.427959 -0.08560751 0.7639131 -0.116439745 -0.9910169 -1.3392907 0.32470715 1.2302344 1.963798 1.585863 -1.9606525 -1.6306756 -1.464528 0.8041223
vegetable oil -3.0221584 -0.948886 2.9742746 -0.6355581 1.3299781 -0.8179106 1.0260192 -2.426561 0.69621223 -1.491875 2.419656 -0.6211421 -0.70195574 1.0184785 3.9719326 -0.6644419 -0.64285696 2.7267547 0.15569298 2.5067286 -0.8041539 -2.2618666 -1.2714684 0.8756319 -0.24886397 0.73225707 -0.18607335 -0.7959239 3.1079113 -0.64903754 -1.6916304 2.1679637 -0.37849447 0.521686 0.6459626 -0.87124866 1.8661141 4.8277764 -2.9016573 2.6333232 2.354294 0.7259311 -4.2887125 -2.5203462 -1.3919578 3.0047963 1.4523106 -2.757417 -1.5540853 2.5316489
roast -2.5393038 -4.2394147 1.1589246 1.5286795 0.3505401 0.69247943 -2.2440624 -0.059098445 -1.5912822 -1.8131292 -2.356704 -2.6280575 3.6744065 4.2383924 -3.4499285 0.10027182 -3.4263644 -1.9385936 -2.312301 -3.3618526 0.49452785 -6.097744 -0.93391156 0.0043385318 -0.036919843 -1.057675 0.9584759 3.0182037 1.8943952 -0.45743465 -2.9113898 -0.13048975 -0.09156122 -0.62337446 -2.4677722 3.737291 -1.8949586 3.4615998 -2.1141167 -0.04813786 1.5699134 2.830189 2.7312694 0.15755078 -1.5112547 0.09254973 -1.0652175 -2.9138803 -3.0437298 -1.2859901
spice 0.04903875 0.65846145 1.1687796 2.2673743 0.88265306 0.7793855 2.8634565 -1.7394528 1.2313737 -1.7261202 -0.19975017 -0.51289827 -1.4151444 -2.1656682 -2.135906 -0.1641576 -2.0290554 2.8260906 -1.6694633 0.6174175 -0.673049 -1.7133915 0.40483472 1.4161518 -0.44019708 -1.3413756 1.7748069 -0.39240202 -0.117620654 0.121481955 0.96974534 -3.7170732 0.53913754 -1.2877617 -1.5359982 1.417351 0.8096383 0.33543664 -0.60744154 -0.56226814 5.883104 0.476753 0.64026976 -0.5900059 0.1134174 2.2199345 -0.65158194 -0.5556623 1.6732793 -2.447982
asparagus 1.515595 1.9204628 0.61754155 2.254125 -0.020256493 0.6311485 -1.9407665 -0.9193588 0.47517645 0.81996495 2.8029656 0.081058346 -0.036392488 0.71341795 0.5913978 0.122862354 4.1981854 -2.483086 0.93587244 -0.98210067 -0.5167122 -0.6134127 -0.64724785 0.20840871 0.12509918 3.5501425 -0.75650907 0.2318094 1.8203051 2.283385 -0.9282616 1.2898406 3.3986647 0.5043453 3.8138888 -0.81694657 -1.0922378 0.3847411 1.5529616 1.2195144 -2.2220056 -3.440336 -0.054039348 -0.09709847 1.1492554 -3.8776104 2.762915 1.3204527 -0.56494176 1.5271673
molasses -1.2505332 -1.8105754 0.319872 2.6301072 -0.2371671 -0.026609182 -1.3293344 1.0121405 -1.6986963 2.3015773 -3.2981942 2.6053152 -0.8818908 -1.4262702 3.0500147 -2.8777986 -0.46442145 0.06959639 3.165507 2.5619187 1.9086562 -1.4625309 1.4726725 -0.37666562 -2.537179 -3.213042 1.0102534 2.5544455 -0.2223618 -0.64838624 -1.4896576 -1.7732403 -5.9381986 -1.3993362 -1.6493149 1.5251285 -4.576678 -4.369993 -0.5819518 -1.5378283 1.0004498 0.91807854 2.8532798 -1.3581715 -2.338743 4.0374775 -2.0043225 -0.8538366 2.594459 -1.2087617
whipped topping -1.073684 -0.7993388 5.5335016 -2.7844229 0.5660723 -0.5374501 1.9562417 0.83025235 -2.1789095 -1.6581922 0.4673907 0.66267717 -0.057353266 -0.92700016 -2.6446617 1.5552423 -4.378859 2.8332295 -1.4589955 -0.6707422 -1.5342196 2.8601139 -0.9224524 1.5381525 3.2336278 -1.3982854 2.5337284 -3.0053847 -2.6000164 4.3327403 1.8539218 -2.507981 0.11847052 -1.290935 -1.1719706 0.022628877 -0.7706893 0.8183756 0.16204774 2.6167603 0.30649915 0.28689852 0.398197 -0.20646338 5.3022604 -6.643532 -2.1144803 -2.9937263 1.2275478 -1.3839952
grape -0.9264622 1.2470379 1.9778309 -0.36528406 -0.19223449 -1.2765841 -0.57207245 -0.7975096 0.9135814 2.1818154 0.78720367 0.2342947 0.4441113 0.08502908 -3.0899854 0.030902714 3.5423377 0.67297137 0.784449 -0.56067187 -3.8194149 2.7659326 1.3290231 -0.99097115 1.6384104 3.2217212 1.6672845 1.2989843 -1.8208251 -0.21738923 0.10959249 0.7920169 0.83712906 2.4948196 -0.36247972 -1.8375483 1.1345898 3.5277953 0.054707896 -0.49093303 1.9969624 -3.3846943 0.29495046 1.3535101 0.6538297 0.15571488 3.0501182 0.63937885 -0.01404918 -0.7058756
liqueur 0.3609276 -0.3797868 1.2395405 0.95167816 1.1058328 0.8726731 -0.3188352 2.6003492 -0.71449083 -1.5732473 -3.817053 0.47777152 -2.719174 -2.6384594 -1.8275205 1.1096529 1.9550251 2.949905 -0.6628899 -1.204406 -0.27425236 0.7443365 -2.4172146 -1.9165112 3.7555861 -1.0412226 1.2190055 2.5392694 -4.2442966 2.2466364 2.1933305 -3.8700383 -1.513048 1.5667528 -1.2255527 -2.5169175 -3.3631752 -0.73285866 -0.03459099 3.5075138 -3.5195992 -0.6940629 -3.4093854 1.1027895 4.140547 -0.302963 -2.6960304 -0.07656452 -1.273582 -0.26361978
puree 0.053728383 0.21753311 0.20247261 2.461523 1.8925363 0.122891195 2.4402704 -0.92484754 -0.4186539 -1.9981424 -1.2459694 -0.15357512 -0.10209129 -2.4363866 -2.3903258 0.21066006 -1.6587708 1.1969198 -1.9333817 2.380618 1.2512659 -2.36351 0.19363365 1.0743573 1.9679581 0.714152 0.6496184 -1.2171469 -0.6188278 -1.9823253 0.05582466 -1.8026159 -1.8114599 -1.0150914 -0.009886419 1.9986618 0.006505626 -1.1627073 -0.37388003 2.3826137 5.0742636 1.2445108 2.2362494 -0.34625682 1.7802533 3.389785 -0.8982921 0.69709677 1.4293782 -3.5148807
marshmallow 0.6895736 -0.18219602 1.391114 -3.062125 -3.589925 1.211823 4.140536 3.2040162 -1.442382 -3.4846075 1.0399605 2.8705318 1.4245 -0.47004053 -4.7223682 1.6537806 -1.9398732 -1.0728647 0.64348334 0.9856038 -3.0961497 5.4986973 -1.9261795 0.44666663 1.7574308 -4.439613 -1.5545717 1.7063109 -2.5887032 4.6573076 1.7861296 1.9908706 -5.812992 -0.42024127 -2.1586497 -1.4514068 -0.5786794 -0.86564535 -1.5531259 -0.52809256 -1.2081561 -1.1472172 -0.06275318 0.49464092 1.7437991 -6.146326 -2.6863935 0.28338706 2.5735533 0.06105558
tarragon 0.8815787 2.0349429 2.0557675 2.4422874 -2.399544 -1.3065621 -1.2667052 -3.2268414 0.49208078 1.1510401 -0.019169243 -0.8469401 -0.27974424 -0.45585206 0.18493363 5.92544 4.456275 -0.4206367 -1.987926 -3.5717995 0.18596427 -2.7577748 0.6900971 0.27696976 -0.4338408 2.1871018 2.7945185 0.1175436 4.3188715 1.530989 -1.1429244 1.5866727 0.70465285 -0.010190732 0.4340708 -0.47551894 2.243966 2.3412554 -2.1306317 0.62887686 0.36481446 -1.4036201 -0.7389567 -2.0561395 0.24549878 -0.88529044 0.51934844 -0.20572221 -0.8156243 -1.024749
lamb -0.27002773 0.2586678 3.2589328 3.662527 -1.7193798 0.71979845 -2.67248 0.58954185 -0.09932972 -1.2254741 -1.0929447 0.58291376 0.7962178 2.5486438 -4.0189953 -1.2478868 0.35417607 -0.92929125 5.0828567 -2.8896782 1.2642221 -3.8415482 0.37619564 -2.3040328 0.59353316 4.2531238 -2.2701938 -3.9430888 1.8125875 -3.5718224 -1.7821845 3.2590861 1.5910305 -0.45074227 1.0228698 -1.4728553 -0.74555916 -0.11644568 -0.15978092 -0.920951 3.0507135 2.867759 3.404477 0.90980583 -0.871563 3.7313044 -1.7509583 -4.377641 -1.326539 -3.7083788
olive oil -1.9200795 -0.7341368 -0.0036794902 1.6485094 -0.37982303 -1.4758489 -0.79088366 -3.241005 3.8978975 0.17813753 1.8492844 -0.8592515 1.6278986 1.6957337 0.5804005 -0.8258144 0.527279 3.5329158 1.7576215 1.2437518 -1.5005565 -2.2829502 -1.8029991 1.2287005 0.10768662 7.567597 1.4717178 -0.6832674 0.39472684 -5.1384583 -1.4827843 3.6428983 0.9925399 -0.48996255 1.8159895 -0.3169316 2.2225883 3.181558 -0.80928755 4.183773 1.4937936 2.0038786 -2.877727 -3.5904984 -2.003325 1.7659118 0.89445704 -2.2077422 -2.829979 -0.05087662
black pepper 0.9926194 -2.2965262 -0.13265477 -0.27585474 3.647766 2.9227202 0.09337137 0.97416884 5.2799397 1.7615312 -2.535014 -1.5046291 1.9239157 0.35421744 -2.2889416 -0.7942702 1.3984329 2.3873165 2.6948996 0.45569032 1.5968133 -0.5556332 -2.729623 -2.1876807 -0.1455209 1.6382898 -2.3687062 -1.4172295 4.494436 3.1681776 -0.47754455 0.76728773 0.43440166 0.37841558 2.337151 -1.8581312 4.352372 -0.0886231 -0.72102296 2.1660671 -1.5777761 1.3002307 0.75763917 -1.6740444 -2.9414113 0.009069541 0.067173734 -1.6683668 -0.4786727 -0.16371873
kidney bean 1.4148291 -3.056381 -1.241933 -3.6753175 0.7472907 2.5185938 0.9149473 -3.8381317 2.1987305 2.0047262 -2.1388245 4.2170525 2.256483 4.581177 -1.1858231 -0.624329 -5.6339207 -1.6294701 -0.30433592 1.6663542 2.2283316 -3.2972012 0.36372536 -1.4611099 -1.6002809 1.0780288 -2.7588031 1.1357741 1.2870704 -7.513778 -1.9456427 -0.14234039 -2.4105701 0.34091622 -1.6381671 -0.26292813 0.7770994 3.3897438 3.452631 -0.90533954 3.3234074 1.4531373 0.19434914 0.90479285 -2.132589 -0.20206076 2.2824552 0.2035707 0.5131635 -0.089085214
mango -2.762217 -0.47257945 5.0028596 -2.2313392 3.0749538 -2.1748226 0.3024507 0.1264815 -1.0759097 1.2724164 1.0346098 0.58623904 -3.4372742 0.14393914 -1.4240123 -3.5308928 1.2316321 2.0502245 3.5593123 -0.82073444 0.37333274 2.9459088 0.7176285 -0.7202205 -0.033670697 -0.5750327 3.2972882 -1.8676438 -0.14756958 0.4496371 3.8231242 0.13165155 -0.54524356 0.58465016 1.6923988 -3.703582 0.37084752 2.4129958 -0.76521 0.4004976 0.67753494 -2.4927046 -0.7014159 1.1405034 -1.1776701 2.5897958 -3.4503014 1.361583 0.036830567 0.050028995
beer -1.2687869 0.11453779 -0.46132034 -2.174396 2.0977287 1.4702492 -0.93042123 -1.866266 -1.2144451 -0.29719844 -1.7130579 -0.8578714 0.78635633 -1.3678783 1.3717432 0.24167731 -2.1934187 -0.75167674 0.57145894 0.92388624 3.2966764 -1.4025437 0.31994143 -1.539233 -2.9520063 -0.56422555 0.8434064 2.4549525 -0.634047 -1.0807055 -1.6170508 -2.366895 -1.6699588 -0.46094495 -0.21724956 1.3323617 -1.4596303 -1.351977 1.3274655 -0.5366038 -2.2718115 3.1610782 -0.10967074 0.25939396 -5.384435 1.3313944 2.2775924 0.28456542 -1.4283761 -1.9880906
caper 2.8924212 3.9656549 -0.9188473 1.1064248 -1.7664942 -0.52228034 -4.2273874 -2.7897785 -1.8553482 -0.519168 -0.28759837 0.74047756 2.8796203 -1.3411404 -0.42052644 1.6381176 3.7205517 -0.5646526 -0.76851904 -2.091743 0.4999312 -1.4001026 -0.57204556 -2.3318121 -1.2714037 5.7193413 -2.3482792 0.19687466 0.8712998 0.5438935 -0.7943606 0.83663523 -0.16603896 0.30771643 0.92157453 -4.0213084 2.248754 3.1425436 -0.59920055 1.2385169 -2.2112312 -3.1373274 0.713399 1.4945643 -3.8984566 -0.59460163 3.2667646 -2.328795 -0.20124792 -3.2380085
tuna 1.9120787 1.5696465 2.7872875 0.88768387 -4.2032275 0.5601853 -0.4840659 -4.3574758 -3.6817088 3.4281569 -1.3013493 -1.8000685 -0.45671472 0.6813307 -2.4838016 -0.69731486 0.9904745 -2.408323 -0.08217063 -2.0460618 -1.1545222 1.6968689 -0.6853032 4.668568 -4.4194508 0.5289324 0.82655114 -1.402884 3.923334 0.80988526 -2.3984745 -0.87987524 1.0423582 0.16404517 -0.87386316 -0.65342504 3.0796416 3.9462664 -2.2098303 3.7888346 2.3765476 -3.2709527 -2.928902 -1.8232108 0.5860265 -0.02436436 2.7314684 -0.15668638 3.5504134 5.538771
grain 1.0625846 1.0278212 0.9718199 -0.24920894 -2.3040032 -0.002056896 2.0895529 -2.4269578 0.7507761 -0.88126075 -0.01310335 0.21956468 -1.823201 1.8561695 0.042997427 -1.7204305 1.2427965 -1.6908048 1.0657265 0.32572564 1.6091512 -0.88223064 -1.3062788 -3.1283708 -0.096485734 -0.8506564 0.38053986 0.31362373 -0.26836863 1.6407756 -0.44874072 2.4544358 -0.8074487 1.9486979 1.3640176 -0.006156123 1.0080284 -0.0021208571 0.007886935 -1.1059315 0.29958874 -0.5109328 0.6705614 0.52250123 0.28255573 0.9555322 1.6195878 -0.3605416 0.20409286 0.9504168
artichoke 3.103809 2.1404257 -1.3269428 1.3039583 -2.7157297 0.5072778 -4.1563888 -3.0860517 -0.8508965 3.8239985 2.0748227 -0.7030626 2.204207 1.8444397 -2.7193005 2.425052 2.030638 -2.9994361 -0.5063412 -1.3314768 0.54025894 0.5620504 -2.2960882 -1.9072943 -0.13181771 5.2080994 -0.24911347 0.7728932 0.5160082 0.91248846 -2.187024 2.230835 -0.5651711 0.29727945 2.9056304 -4.367333 -0.4391833 -0.16789241 0.020778412 2.844357 -0.33361644 -2.9718504 0.91104406 3.4250405 -1.0620472 -4.0549994 3.3166234 1.6490874 -1.8040301 0.1019987
cardamom -3.6397517 1.1113424 2.3081217 -1.6851325 -1.6047145 -2.527281 -3.0407226 4.2132406 0.5545597 -0.6750808 -1.3570449 4.021643 2.3812773 -1.8796006 0.095820025 -0.3455107 0.61954194 -1.5876992 4.2017446 2.234501 3.6689956 -1.5640881 -0.7976073 -4.112539 3.9211404 -1.5490358 -2.5435355 -1.7481903 -3.6008158 0.8449118 -0.55498016 0.32680884 -1.3102794 -0.004762551 4.0920963 -1.9872854 -0.4677398 -3.8050475 2.450317 -0.45289567 0.33858648 1.4300686 -0.5329737 0.008498542 0.56614494 6.2433124 -3.1157894 1.8220645 -0.25427282 -1.2645738
eggplant 1.4357787 -0.41011676 -2.7643769 3.3761897 0.32289815 1.4592277 -3.783754 -0.5709167 -0.7028159 0.000569131 0.59979755 1.4624625 1.4314563 1.6106731 -1.0905362 -1.5828015 0.99272543 -1.1278192 2.599486 -0.6722956 1.377162 0.10137405 -0.3394687 1.3480378 -0.19211602 3.2044196 -3.3906825 -1.7187147 -0.69648755 -2.5569596 -0.07342469 0.1255897 2.1742086 -0.45270336 2.4348464 -2.2874587 1.4022298 0.9298779 1.1657212 3.161506 3.4900885 -1.1849736 0.9614845 1.2453414 -0.4743975 1.2650013 -0.2197831 -2.0553484 1.3044313 -0.47490212
brandy -1.2840091 1.4149797 1.2296047 0.12435434 -2.2102127 0.016212873 -4.1387315 2.0849133 0.2463508 -4.308199 -2.1518157 -0.9103371 1.9720765 -3.4002457 -0.9375053 -0.16913466 3.055219 0.1520633 -1.4649161 1.3175507 -0.9651011 -1.3349869 -1.4819728 -2.7648318 0.2063947 2.4646497 1.6490011 2.1215818 0.5464183 2.3782156 -0.25554457 -2.159119 -1.2546453 2.557626 0.64974195 0.13539788 -2.7944546 -4.3180346 1.7700944 0.4558125 -4.946461 1.8461055 -0.3923799 -0.12840432 2.4019732 0.56458914 -1.7608054 2.1740267 -1.9895759 -1.6161039
pear -0.7371045 -1.7486974 3.9374983 1.6628476 -0.58879286 -1.6164593 -1.8214486 3.2362869 -1.2318821 1.3241107 0.5116534 0.6337759 0.3382653 -0.29974383 0.83520263 0.6931197 3.5047762 1.8393801 2.2347374 -0.25288686 -2.119623 1.1073654 2.4206667 -1.0313488 0.6586642 0.46667483 3.660241 1.2641692 -0.2600795 1.7992221 -0.066288285 0.10537616 -0.40596676 0.0048030536 0.061026342 0.027761584 -1.2241404 0.45788458 -1.3039242 -0.763245 1.0877786 -1.0995489 0.9493966 0.9101802 3.4491708 1.7340426 -0.98570704 0.2647712 -0.60739833 -1.8491863
cauliflower 0.48228163 1.970934 0.91607016 -0.2774545 -1.587547 2.8203154 -2.0173268 0.8076258 3.8336167 1.322044 2.8218246 0.9402419 1.4531459 2.4882548 -0.6617897 0.47927824 1.8730297 -2.7480564 3.8057127 1.68231 0.9287995 -0.4918518 -0.21696244 -0.88475406 2.7483003 0.12953663 -1.8901249 -1.4949988 2.1875517 -0.49525526 -1.796529 0.95077175 2.3044834 0.034588978 1.4464397 0.68061525 0.14848422 -0.38381818 0.13560125 0.7098658 2.8480935 -0.17204608 0.40696388 -0.114281304 -0.21137701 -0.3753003 2.6998513 1.8921068 0.5436036 2.2863765
herb 0.6842578 0.44394985 -1.0824914 0.21734805 -1.8987347 0.99969906 -0.50385356 -2.8489628 1.6127052 0.62580234 0.6080226 -0.83566767 0.54369324 1.1784906 -0.9030679 0.6627213 1.2896181 0.080645815 0.17625031 -3.4050028 -0.18946093 -0.76420045 1.0037705 0.61207485 0.36270073 2.6897793 -0.3757887 -1.0401973 1.1149939 1.0362773 -0.14485385 0.9240869 1.9232901 0.87678725 2.0829852 0.41949603 -0.0889347 -0.21139652 -1.4955506 2.1291525 0.2896608 0.7470312 2.28722 1.9575708 -1.067075 -1.7124199 1.6393076 -1.6502872 -0.79433054 -0.48959547
